{"learner":{"attributes":{"scikit_learn":"{\"_estimator_type\": \"classifier\"}"},"feature_names":["Gender","Married","Dependents","Education","Self_Employed","ApplicantIncome","CoapplicantIncome","LoanAmount","Loan_Amount_Term","Credit_History","Property_Area"],"feature_types":["int","int","int","int","int","int","float","float","float","float","int"],"gradient_booster":{"model":{"cats":{"enc":[],"feature_segments":[],"sorted_idx":[]},"gbtree_model_param":{"num_parallel_tree":"1","num_trees":"100"},"iteration_indptr":[0,1,2,3,4,5,6,7,8,9,10,11,12,13,14,15,16,17,18,19,20,21,22,23,24,25,26,27,28,29,30,31,32,33,34,35,36,37,38,39,40,41,42,43,44,45,46,47,48,49,50,51,52,53,54,55,56,57,58,59,60,61,62,63,64,65,66,67,68,69,70,71,72,73,74,75,76,77,78,79,80,81,82,83,84,85,86,87,88,89,90,91,92,93,94,95,96,97,98,99,100],"tree_info":[0,0,0,0,0,0,0,0,0,0,0,0,0,0,0,0,0,0,0,0,0,0,0,0,0,0,0,0,0,0,0,0,0,0,0,0,0,0,0,0,0,0,0,0,0,0,0,0,0,0,0,0,0,0,0,0,0,0,0,0,0,0,0,0,0,0,0,0,0,0,0,0,0,0,0,0,0,0,0,0,0,0,0,0,0,0,0,0,0,0,0,0,0,0,0,0,0,0,0,0],"trees":[{"base_weights":[-9.161474E-8,-2.0740533E-1,4.3333066E-1,5.693956E-1,2.330352E-2,1.8724498E-1,9.3304795E-1,4.6488404E-1,-3.565649E-1,-1.08852595E-1,2.8688446E-1,1.0043783E0,-5.5164684E-2,-2.5672486E-2,6.147648E-1,-1.049619E0,2.0001209E-1,-2.1372851E-2,3.748753E-2,7.793863E-3,8.712259E-2,-1.2137332E-2,7.720485E-2,-3.2068525E-2,-1.23412E-1,4.3053873E-2,-7.3942974E-2],"categories":[],"categories_nodes":[],"categories_segments":[],"categories_sizes":[],"default_left":[0,0,0,0,0,0,0,0,0,0,0,0,0,0,0,0,0,0,0,0,0,0,0,0,0,0,0],"id":0,"left_children":[1,-1,3,5,7,9,11,13,15,-1,17,19,-1,-1,21,23,25,-1,-1,-1,-1,-1,-1,-1,-1,-1,-1],"loss_changes":[1.2099275E2,0E0,5.134802E0,9.447746E0,4.1973023E0,5.7904806E0,4.7699337E0,1.5573845E0,5.4119134E0,0E0,3.520099E0,2.5159988E0,0E0,0E0,2.8424914E0,1.354044E0,3.66036E0,0E0,0E0,0E0,0E0,0E0,0E0,0E0,0E0,0E0,0E0],"parents":[2147483647,0,0,2,2,3,3,4,4,5,5,6,6,7,7,8,8,10,10,11,11,14,14,15,15,16,16],"right_children":[2,-1,4,6,8,10,12,14,16,-1,18,20,-1,-1,22,24,26,-1,-1,-1,-1,-1,-1,-1,-1,-1,-1],"split_conditions":[1E0,-2.0740533E-1,1.66E2,7.54E2,1.542E3,2.383E3,5.063E3,6.4E3,3.022E3,-1.08852595E-1,1E0,3.42E2,-5.5164684E-2,-2.5672486E-2,1E0,2.067E3,7.25E3,-2.1372851E-2,3.748753E-2,7.793863E-3,8.712259E-2,-1.2137332E-2,7.720485E-2,-3.2068525E-2,-1.23412E-1,4.3053873E-2,-7.3942974E-2],"split_indices":[9,0,7,6,6,5,6,5,6,0,3,8,0,0,1,6,6,0,0,0,0,0,0,0,0,0,0],"split_type":[0,0,0,0,0,0,0,0,0,0,0,0,0,0,0,0,0,0,0,0,0,0,0,0,0,0,0],"sum_hessian":[1.0569857E2,1.4423226E1,9.1275345E1,6.8241234E1,2.303411E1,3.401298E1,3.4228252E1,1.054833E1,1.2485778E1,1.2916322E0,3.272135E1,3.3151894E1,1.0763602E0,1.5069042E0,9.041426E0,5.1665287E0,7.319249E0,7.9650655E0,2.4756285E1,3.0138085E0,3.0138086E1,3.0138085E0,6.027617E0,3.0138085E0,2.1527205E0,6.027617E0,1.2916322E0],"tree_param":{"num_deleted":"0","num_feature":"11","num_nodes":"27","size_leaf_vector":"1"}},{"base_weights":[-2.1386193E-3,-1.7954384E-1,4.030336E-1,5.3337514E-1,1.6086379E-2,1.7106423E-1,8.8586193E-1,4.3742174E-1,-3.3947602E-1,-1.01630054E-1,2.6690453E-1,9.5662093E-1,-5.230874E-2,-2.4293792E-2,5.8231056E-1,-9.694693E-1,1.8210247E-1,-1.9709429E-2,3.5103448E-2,8.654473E-2,2.1471195E-2,-1.1368181E-2,7.38601E-2,-2.9866198E-2,-1.1315282E-1,4.0692862E-2,-6.9516815E-2],"categories":[],"categories_nodes":[],"categories_segments":[],"categories_sizes":[],"default_left":[0,0,0,0,0,0,0,0,0,0,0,0,0,0,0,0,0,0,0,0,0,0,0,0,0,0,0],"id":1,"left_children":[1,-1,3,5,7,9,11,13,15,-1,17,19,-1,-1,21,23,25,-1,-1,-1,-1,-1,-1,-1,-1,-1,-1],"loss_changes":[9.755615E1,0E0,4.5787773E0,8.533514E0,3.7363405E0,5.143175E0,4.3549404E0,1.4006803E0,4.6294074E0,0E0,3.0577905E0,2.564352E0,0E0,0E0,2.5705323E0,1.1419444E0,3.2755542E0,0E0,0E0,0E0,0E0,0E0,0E0,0E0,0E0,0E0,0E0],"parents":[2147483647,0,0,2,2,3,3,4,4,5,5,6,6,7,7,8,8,10,10,11,11,14,14,15,15,16,16],"right_children":[2,-1,4,6,8,10,12,14,16,-1,18,20,-1,-1,22,24,26,-1,-1,-1,-1,-1,-1,-1,-1,-1,-1],"split_conditions":[1E0,-1.7954384E-1,1.66E2,7.54E2,1.542E3,2.383E3,5.063E3,6.4E3,3.022E3,-1.01630054E-1,1E0,4.2E3,-5.230874E-2,-2.4293792E-2,1E0,2.067E3,7.25E3,-1.9709429E-2,3.5103448E-2,8.654473E-2,2.1471195E-2,-1.1368181E-2,7.38601E-2,-2.9866198E-2,-1.1315282E-1,4.0692862E-2,-6.9516815E-2],"split_indices":[9,0,7,6,6,5,6,5,6,0,3,5,0,0,1,6,6,0,0,0,0,0,0,0,0,0,0],"split_type":[0,0,0,0,0,0,0,0,0,0,0,0,0,0,0,0,0,0,0,0,0,0,0,0,0,0,0],"sum_hessian":[1.0539054E2,1.5435239E1,8.99553E1,6.700615E1,2.294915E1,3.377506E1,3.323109E1,1.03977585E1,1.2551392E1,1.3416398E0,3.2433422E1,3.21331E1,1.0979952E0,1.5211754E0,8.876583E0,5.2959313E0,7.2554603E0,8.027975E0,2.4405445E1,2.6703836E1,5.4292603E0,3.027377E0,5.8492064E0,3.0493684E0,2.2465627E0,5.9293127E0,1.3261476E0],"tree_param":{"num_deleted":"0","num_feature":"11","num_nodes":"27","size_leaf_vector":"1"}},{"base_weights":[-4.0074307E-3,-1.5921204E-1,3.752363E-1,5.0004613E-1,9.877183E-3,1.5621734E-1,8.4224755E-1,4.1191095E-1,-3.234027E-1,-9.519795E-2,2.4828514E-1,9.124505E-1,-4.9636792E-2,-2.2995416E-2,5.5202454E-1,-8.984573E-1,1.6571848E-1,8.4991455E-2,1.0736665E-2,3.119321E-3,7.987778E-2,-1.0649847E-2,7.0739105E-2,-2.7835676E-2,-1.0434949E-1,3.8460515E-2,-6.5457016E-2],"categories":[],"categories_nodes":[],"categories_segments":[],"categories_sizes":[],"default_left":[0,0,0,0,0,0,0,0,0,0,0,0,0,0,0,0,0,0,0,0,0,0,0,0,0,0,0],"id":2,"left_children":[1,-1,3,5,7,9,11,13,15,-1,17,19,-1,-1,21,23,25,-1,-1,-1,-1,-1,-1,-1,-1,-1,-1],"loss_changes":[8.038211E1,0E0,4.0815535E0,7.7252865E0,3.3273332E0,4.575984E0,3.9794178E0,1.2605222E0,3.972477E0,0E0,2.936405E0,2.374628E0,0E0,0E0,2.3279083E0,9.7714186E-1,2.932095E0,0E0,0E0,0E0,0E0,0E0,0E0,0E0,0E0,0E0,0E0],"parents":[2147483647,0,0,2,2,3,3,4,4,5,5,6,6,7,7,8,8,10,10,11,11,14,14,15,15,16,16],"right_children":[2,-1,4,6,8,10,12,14,16,-1,18,20,-1,-1,22,24,26,-1,-1,-1,-1,-1,-1,-1,-1,-1,-1],"split_conditions":[1E0,-1.5921204E-1,1.66E2,7.54E2,1.542E3,2.383E3,5.063E3,6.4E3,3.022E3,-9.519795E-2,6.1E1,3.42E2,-4.9636792E-2,-2.2995416E-2,1E0,2.067E3,7.25E3,8.4991455E-2,1.0736665E-2,3.119321E-3,7.987778E-2,-1.0649847E-2,7.0739105E-2,-2.7835676E-2,-1.0434949E-1,3.8460515E-2,-6.5457016E-2],"split_indices":[9,0,7,6,6,5,6,5,6,0,7,8,0,0,1,6,6,0,0,0,0,0,0,0,0,0,0],"split_type":[0,0,0,0,0,0,0,0,0,0,0,0,0,0,0,0,0,0,0,0,0,0,0,0,0,0,0],"sum_hessian":[1.047248E2,1.610955E1,8.861525E1,6.577672E1,2.283854E1,3.3536865E1,3.223985E1,1.02446E1,1.2593938E1,1.3834494E0,3.2153416E1,3.1122316E1,1.1175318E0,1.5344001E0,8.7102E0,5.4038305E0,7.1901073E0,2.930067E0,2.922335E1,2.9205475E0,2.8201769E1,3.039965E0,5.670235E0,3.0816221E0,2.3222086E0,5.833661E0,1.3564463E0],"tree_param":{"num_deleted":"0","num_feature":"11","num_nodes":"27","size_leaf_vector":"1"}},{"base_weights":[-5.1738084E-3,-1.436351E-1,3.5005286E-1,4.696076E-1,4.5235585E-3,1.4473163E-1,8.0108947E-1,3.8813734E-1,-3.082705E-1,-8.9437604E-2,2.3304833E-1,1.0347469E0,2.402846E-1,-2.177191E-2,5.2365226E-1,-8.350912E-1,1.5070705E-1,8.216433E-2,9.948334E-3,9.088649E-2,2.24376E-2,-5.3251855E-2,4.8670847E-2,-9.978639E-3,6.780954E-2,-2.596024E-2,-9.6707E-2,3.634737E-2,-6.1721485E-2],"categories":[],"categories_nodes":[],"categories_segments":[],"categories_sizes":[],"default_left":[0,0,0,0,0,0,0,0,0,0,0,0,0,0,0,0,0,0,0,0,0,0,0,0,0,0,0,0,0],"id":3,"left_children":[1,-1,3,5,7,9,11,13,15,-1,17,19,21,-1,23,25,27,-1,-1,-1,-1,-1,-1,-1,-1,-1,-1,-1,-1],"loss_changes":[6.728471E1,0E0,3.645378E0,6.947403E0,2.9643395E0,4.0906396E0,3.976511E0,1.1349074E0,3.418289E0,0E0,2.714055E0,1.3979492E0,4.0017242E0,0E0,2.1105409E0,8.46704E-1,2.625382E0,0E0,0E0,0E0,0E0,0E0,0E0,0E0,0E0,0E0,0E0,0E0,0E0],"parents":[2147483647,0,0,2,2,3,3,4,4,5,5,6,6,7,7,8,8,10,10,11,11,12,12,14,14,15,15,16,16],"right_children":[2,-1,4,6,8,10,12,14,16,-1,18,20,22,-1,24,26,28,-1,-1,-1,-1,-1,-1,-1,-1,-1,-1,-1,-1],"split_conditions":[1E0,-1.436351E-1,1.66E2,7.54E2,1.542E3,2.383E3,2.451E3,6.4E3,3.022E3,-8.9437604E-2,6.1E1,4.2E3,2.435E3,-2.177191E-2,1E0,2.067E3,7.25E3,8.216433E-2,9.948334E-3,9.088649E-2,2.24376E-2,-5.3251855E-2,4.8670847E-2,-9.978639E-3,6.780954E-2,-2.596024E-2,-9.6707E-2,3.634737E-2,-6.1721485E-2],"split_indices":[9,0,7,6,6,5,6,5,6,0,7,5,5,0,1,6,6,0,0,0,0,0,0,0,0,0,0,0,0],"split_type":[0,0,0,0,0,0,0,0,0,0,0,0,0,0,0,0,0,0,0,0,0,0,0,0,0,0,0,0,0],"sum_hessian":[1.0381364E2,1.6517036E1,8.72966E1,6.458931E1,2.2707294E1,3.334522E1,3.1244087E1,1.0090874E1,1.2616421E1,1.4176615E0,3.1927559E1,2.1458406E1,9.785682E0,1.546655E0,8.544218E0,5.492544E0,7.1238766E0,2.8270512E0,2.9100508E1,1.8470745E1,2.987661E0,2.5937865E0,7.191895E0,3.0516498E0,5.4925685E0,3.1108902E0,2.381654E0,5.741031E0,1.382845E0],"tree_param":{"num_deleted":"0","num_feature":"11","num_nodes":"29","size_leaf_vector":"1"}},{"base_weights":[-5.4737637E-3,-1.3125397E-1,3.274099E-1,5.431602E-2,4.7536162E-1,2.1061908E-1,-6.83289E-1,8.492251E-1,2.0267767E-1,-4.0231842E-1,4.392351E-1,-9.2237994E-2,6.601272E-2,-2.9816356E-2,9.469751E-1,-3.248549E-2,5.901829E-1,3.0297223E-3,-9.4727494E-2,-3.1052576E-2,4.4199027E-2,6.092733E-2,-5.2577972E-2,-3.5333824E-3,8.403393E-2,-6.111324E-2,7.7513205E-3,5.9914213E-2,-2.7196063E-2],"categories":[],"categories_nodes":[],"categories_segments":[],"categories_sizes":[],"default_left":[0,0,0,0,0,0,0,0,0,0,0,0,0,0,0,0,0,0,0,0,0,0,0,0,0,0,0,0,0],"id":4,"left_children":[1,-1,3,5,7,9,11,13,15,17,19,-1,21,-1,23,25,27,-1,-1,-1,-1,-1,-1,-1,-1,-1,-1,-1,-1],"loss_changes":[5.7007862E1,0E0,3.4905863E0,3.799807E0,5.5694256E0,3.9503598E0,2.1104102E0,3.1526222E0,3.106535E0,2.7420492E0,2.0971968E0,0E0,2.0967958E0,0E0,2.3006363E0,2.1589332E0,2.1515903E0,0E0,0E0,0E0,0E0,0E0,0E0,0E0,0E0,0E0,0E0,0E0,0E0],"parents":[2147483647,0,0,2,2,3,3,4,4,5,5,6,6,7,7,8,8,9,9,10,10,12,12,14,14,15,15,16,16],"right_children":[2,-1,4,6,8,10,12,14,16,18,20,-1,22,-1,24,26,28,-1,-1,-1,-1,-1,-1,-1,-1,-1,-1,-1,-1],"split_conditions":[1E0,-1.3125397E-1,1E0,1.76E2,3.522E3,8.4E1,2.46E2,1.759E3,6.216E3,7.2E1,2.609E3,-9.2237994E-2,3.04E2,-2.9816356E-2,2.4E2,9.5E1,1.9484E4,3.0297223E-3,-9.4727494E-2,-3.1052576E-2,4.4199027E-2,6.092733E-2,-5.2577972E-2,-3.5333824E-3,8.403393E-2,-6.111324E-2,7.7513205E-3,5.9914213E-2,-2.7196063E-2],"split_indices":[9,0,1,7,5,7,7,5,5,7,5,0,7,0,8,7,5,0,0,0,0,0,0,0,0,0,0,0,0],"split_type":[0,0,0,0,0,0,0,0,0,0,0,0,0,0,0,0,0,0,0,0,0,0,0,0,0,0,0,0,0],"sum_hessian":[1.0274316E2,1.6713573E1,8.602959E1,3.0710434E1,5.5319153E1,2.5930134E1,4.7803E0,2.2439348E1,3.2879803E1,6.8377604E0,1.9092373E1,2.6072567E0,2.1730435E0,1.4537559E0,2.0985592E1,2.1032248E1,1.1847557E1,4.9833627E0,1.8543979E0,2.0064518E0,1.708592E1,1.0806698E0,1.0923736E0,2.0374908E0,1.8948101E1,2.4239469E0,1.86083E1,1.0286747E1,1.5608093E0],"tree_param":{"num_deleted":"0","num_feature":"11","num_nodes":"29","size_leaf_vector":"1"}},{"base_weights":[-7.0567545E-3,-1.5140301E0,3.0430722E-1,-1.2672584E-1,-5.1323485E-2,3.3790943E-1,-5.9085872E-2,4.5785064E-1,-4.3141993E-4,1.736562E-1,7.5665224E-1,-5.005593E-1,1.7677101E-1,-8.487582E-2,2.1082556E-2,6.966293E-2,-1.902748E-2,-6.4734404E-4,-8.416413E-2,-1.3050269E-2,4.745838E-2],"categories":[],"categories_nodes":[],"categories_segments":[],"categories_sizes":[],"default_left":[0,0,0,0,0,0,0,0,0,0,0,0,0,0,0,0,0,0,0,0,0],"id":5,"left_children":[1,3,5,-1,-1,7,-1,9,11,13,15,17,19,-1,-1,-1,-1,-1,-1,-1,-1],"loss_changes":[4.862395E1,6.8107605E-2,3.2598405E0,0E0,0E0,3.4052114E0,0E0,5.129053E0,2.1232018E0,3.9465995E0,3.6009293E0,1.6936897E0,2.6010804E0,0E0,0E0,0E0,0E0,0E0,0E0,0E0,0E0],"parents":[2147483647,0,0,1,1,2,2,5,5,7,7,8,8,9,9,10,10,11,11,12,12],"right_children":[2,4,6,-1,-1,8,-1,10,12,14,16,18,20,-1,-1,-1,-1,-1,-1,-1,-1],"split_conditions":[1E0,3E0,4.8E2,-1.2672584E-1,-5.1323485E-2,1.66E2,-5.9085872E-2,7.54E2,1E0,2.383E3,3.8E3,1.89E2,6.4E3,-8.487582E-2,2.1082556E-2,6.966293E-2,-1.902748E-2,-6.4734404E-4,-8.416413E-2,-1.3050269E-2,4.745838E-2],"split_indices":[9,2,8,0,0,7,0,6,1,5,6,6,5,0,0,0,0,0,0,0,0],"split_type":[0,0,0,0,0,0,0,0,0,0,0,0,0,0,0,0,0,0,0,0,0],"sum_hessian":[1.0164589E2,1.674398E1,8.490192E1,1.4744699E1,1.9992812E0,8.29066E1,1.9953133E0,6.0947575E1,2.1959024E1,3.2047714E1,2.889986E1,5.267498E0,1.6691526E1,1.4415021E0,3.0606213E1,2.6036182E1,2.863678E0,3.3186808E0,1.9488175E0,9.525465E0,7.166062E0],"tree_param":{"num_deleted":"0","num_feature":"11","num_nodes":"21","size_leaf_vector":"1"}},{"base_weights":[-9.15076E-3,-1.4109633E0,2.8287497E-1,-1.5555638E0,-8.3785206E-1,3.3183746E-2,4.212425E-1,-4.4773396E-2,-1.3482198E-1,7.3105707E-3,-9.49499E-2,1.1596598E-1,-9.589818E-2,7.8681755E-1,1.6428372E-1,2.896526E-1,-6.85485E-1,-2.9973112E-2,8.8591343E-1,-2.4644485E-1,3.7046146E-1,-2.4563562E-2,4.123657E-2,-8.214365E-2,-2.0782535E-3,-5.3858384E-3,7.9311825E-2,5.845492E-3,-8.6089276E-2,-3.3538464E-2,4.0994618E-2],"categories":[],"categories_nodes":[],"categories_segments":[],"categories_sizes":[],"default_left":[0,0,0,0,0,0,0,0,0,0,0,0,0,0,0,0,0,0,0,0,0,0,0,0,0,0,0,0,0,0,0],"id":6,"left_children":[1,3,5,7,9,11,13,-1,-1,-1,-1,15,-1,17,19,21,23,-1,25,27,29,-1,-1,-1,-1,-1,-1,-1,-1,-1,-1],"loss_changes":[4.190324E1,1.5907288E-1,2.9137158E0,7.2628975E-1,1.9644661E0,3.331066E0,4.984642E0,0E0,0E0,0E0,0E0,4.408218E0,0E0,2.8878574E0,2.905544E0,3.6018817E0,1.252666E0,0E0,2.154007E0,3.182128E0,2.7402306E0,0E0,0E0,0E0,0E0,0E0,0E0,0E0,0E0,0E0,0E0],"parents":[2147483647,0,0,1,1,2,2,3,3,4,4,5,5,6,6,11,11,13,13,14,14,15,15,16,16,18,18,19,19,20,20],"right_children":[2,4,6,8,10,12,14,-1,-1,-1,-1,16,-1,18,20,22,24,-1,26,28,30,-1,-1,-1,-1,-1,-1,-1,-1,-1,-1],"split_conditions":[1E0,1.53E2,1E0,2.491E3,1.67E2,4.8E2,3.522E3,-4.4773396E-2,-1.3482198E-1,7.3105707E-3,-9.49499E-2,1.76E2,-9.589818E-2,1.759E3,4.625E3,8.4E1,2.46E2,-2.9973112E-2,2.4E2,2.358E3,1E0,-2.4563562E-2,4.123657E-2,-8.214365E-2,-2.0782535E-3,-5.3858384E-3,7.9311825E-2,5.845492E-3,-8.6089276E-2,-3.3538464E-2,4.0994618E-2],"split_indices":[9,7,1,5,7,8,5,0,0,0,0,7,0,5,5,7,7,0,8,6,3,0,0,0,0,0,0,0,0,0,0],"split_type":[0,0,0,0,0,0,0,0,0,0,0,0,0,0,0,0,0,0,0,0,0,0,0,0,0,0,0,0,0,0,0],"sum_hessian":[1.0038649E2,1.6646513E1,8.3739975E1,1.19238E1,4.722712E0,3.0300682E1,5.3439293E1,1.986507E0,9.937293E0,1.4910698E0,3.2316425E0,2.9241566E1,1.0591165E0,2.1206617E1,3.2232674E1,2.4558052E1,4.683514E0,1.4484795E0,1.9758139E1,1.0707287E1,2.1525387E1,6.643244E0,1.7914808E1,2.7192976E0,1.9642162E0,2.0046237E0,1.7753515E1,8.388669E0,2.318618E0,2.982544E0,1.8542843E1],"tree_param":{"num_deleted":"0","num_feature":"11","num_nodes":"31","size_leaf_vector":"1"}},{"base_weights":[-1.270881E-2,-1.3277937E0,2.6204365E-1,-1.1145068E-1,-4.3441642E-2,-5.5172283E-2,2.932367E-1,5.9599346E-1,1.3001457E-1,-4.6267912E-1,7.130642E-1,-4.788727E-1,2.1710922E-1,-7.579962E-2,2.1014221E-2,5.098729E-3,7.201726E-2,6.648081E-2,-7.9792626E-2,2.9176686E-2,-1.69013E-2],"categories":[],"categories_nodes":[],"categories_segments":[],"categories_sizes":[],"default_left":[0,0,0,0,0,0,0,0,0,0,0,0,0,0,0,0,0,0,0,0,0],"id":7,"left_children":[1,3,5,-1,-1,-1,7,9,11,13,15,17,19,-1,-1,-1,-1,-1,-1,-1,-1],"loss_changes":[3.6510036E1,1.3884544E-1,2.6846528E0,0E0,0E0,0E0,3.9583406E0,3.8408813E0,2.9857407E0,1.4540923E0,3.0901775E0,5.659605E0,3.1264887E0,0E0,0E0,0E0,0E0,0E0,0E0,0E0,0E0],"parents":[2147483647,0,0,1,1,2,2,6,6,7,7,8,8,9,9,10,10,11,11,12,12],"right_children":[2,4,6,-1,-1,-1,8,10,12,14,16,18,20,-1,-1,-1,-1,-1,-1,-1,-1],"split_conditions":[1E0,3E0,1.759E3,-1.1145068E-1,-4.3441642E-2,-5.5172283E-2,3.358E3,3.42E2,9.6E1,1E0,7.6E1,5.4E1,2.067E3,-7.579962E-2,2.1014221E-2,5.098729E-3,7.201726E-2,6.648081E-2,-7.9792626E-2,2.9176686E-2,-1.69013E-2],"split_indices":[9,2,5,0,0,0,5,8,7,2,7,7,6,0,0,0,0,0,0,0,0],"split_type":[0,0,0,0,0,0,0,0,0,0,0,0,0,0,0,0,0,0,0,0,0],"sum_hessian":[9.908252E1,1.6460882E1,8.262164E1,1.4480073E1,1.9808084E0,1.9521624E0,8.066948E1,2.7328005E1,5.3341473E1,2.4271455E0,2.4900858E1,6.1121974E0,4.7229275E1,1.2712299E0,1.1559156E0,5.8711634E0,1.9029696E1,1.5625061E0,4.549691E0,3.5236835E1,1.1992441E1],"tree_param":{"num_deleted":"0","num_feature":"11","num_nodes":"21","size_leaf_vector":"1"}},{"base_weights":[-1.344676E-2,-1.2502505E0,2.4397664E-1,-1.3891398E0,-7.185576E-1,2.7626115E-1,-5.5763617E-2,-1.21663675E-1,-3.51465E-2,1.1798758E-2,-8.493969E-2,4.2404187E-1,4.1127987E-2,-7.204035E-2,6.086322E-1,-7.714376E-2,1.10087454E-1,-8.253783E-2,1.9722823E-2,6.73104E-2,1.7462185E-2,-7.636053E-3,4.777554E-2],"categories":[],"categories_nodes":[],"categories_segments":[],"categories_sizes":[],"default_left":[0,0,0,0,0,0,0,0,0,0,0,0,0,0,0,0,0,0,0,0,0,0,0],"id":8,"left_children":[1,3,5,7,9,11,-1,-1,-1,-1,-1,13,15,17,19,-1,21,-1,-1,-1,-1,-1,-1],"loss_changes":[3.1781145E1,2.7162743E-1,2.7040405E0,9.0275574E-1,1.8307979E0,2.7847052E0,0E0,0E0,0E0,0E0,0E0,4.5685616E0,2.3407767E0,4.6244802E0,3.0977802E0,0E0,3.166582E0,0E0,0E0,0E0,0E0,0E0,0E0],"parents":[2147483647,0,0,1,1,2,2,3,3,4,4,5,5,11,11,12,12,13,13,14,14,16,16],"right_children":[2,4,6,8,10,12,-1,-1,-1,-1,-1,14,16,18,20,-1,22,-1,-1,-1,-1,-1,-1],"split_conditions":[1E0,1.53E2,4.8E2,2.275E3,1.67E2,1.46E2,-5.5763617E-2,-1.21663675E-1,-3.51465E-2,1.1798758E-2,-8.493969E-2,8.8E1,2.014E3,1E0,4.006E3,-7.714376E-2,2E0,-8.253783E-2,1.9722823E-2,6.73104E-2,1.7462185E-2,-7.636053E-3,4.777554E-2],"split_indices":[9,7,8,6,7,7,0,0,0,0,0,7,5,10,5,0,2,0,0,0,0,0,0],"split_type":[0,0,0,0,0,0,0,0,0,0,0,0,0,0,0,0,0,0,0,0,0,0,0],"sum_hessian":[9.786266E1,1.6195204E1,8.166746E1,1.1562234E1,4.6329694E0,7.964155E1,2.0259132E0,9.626684E0,1.935549E0,1.4767125E0,3.156257E0,4.8411564E1,3.122998E1,1.3293995E1,3.511757E1,1.1711498E0,3.0058832E1,2.7553084E0,1.0538687E1,2.1276255E1,1.3841315E1,2.1704508E1,8.354323E0],"tree_param":{"num_deleted":"0","num_feature":"11","num_nodes":"23","size_leaf_vector":"1"}},{"base_weights":[-1.5402056E-2,-1.1863731E0,2.2662972E-1,-1.3198256E0,-6.8019366E-1,-6.2744473E-3,3.5893854E-1,-3.267102E-2,-1.1591094E-1,-8.2236834E-2,1.4180746E-2,7.252627E-2,-8.83814E-2,7.0898443E-1,1.2699683E-1,2.3761897E-1,-6.548941E-1,-2.5145898E-2,8.054233E-1,-2.5786167E-1,3.248149E-1,-6.162233E-2,2.8420366E-2,-7.760052E-2,-2.4627887E-3,-7.4489377E-3,7.30072E-2,3.1087059E-3,-7.9093546E-2,-3.4101713E-2,3.7182584E-2],"categories":[],"categories_nodes":[],"categories_segments":[],"categories_sizes":[],"default_left":[0,0,0,0,0,0,0,0,0,0,0,0,0,0,0,0,0,0,0,0,0,0,0,0,0,0,0,0,0,0,0],"id":9,"left_children":[1,3,5,7,9,11,13,-1,-1,-1,-1,15,-1,17,19,21,23,-1,25,27,29,-1,-1,-1,-1,-1,-1,-1,-1,-1,-1],"loss_changes":[2.793235E1,2.425003E-1,2.520753E0,8.5450935E-1,1.8476815E0,2.7281854E0,4.1430182E0,0E0,0E0,0E0,0E0,3.696194E0,0E0,2.282195E0,2.5639205E0,3.2096097E0,1.0950048E0,0E0,1.9213095E0,2.5575929E0,2.506704E0,0E0,0E0,0E0,0E0,0E0,0E0,0E0,0E0,0E0,0E0],"parents":[2147483647,0,0,1,1,2,2,3,3,4,4,5,5,6,6,11,11,13,13,14,14,15,15,16,16,18,18,19,19,20,20],"right_children":[2,4,6,8,10,12,14,-1,-1,-1,-1,16,-1,18,20,22,24,-1,26,28,30,-1,-1,-1,-1,-1,-1,-1,-1,-1,-1],"split_conditions":[1E0,1.53E2,1E0,2.491E3,2E0,4.8E2,3.522E3,-3.267102E-2,-1.1591094E-1,-8.2236834E-2,1.4180746E-2,1.76E2,-8.83814E-2,1.759E3,4.625E3,3.42E2,2.46E2,-2.5145898E-2,7.1E1,2.358E3,1E0,-6.162233E-2,2.8420366E-2,-7.760052E-2,-2.4627887E-3,-7.4489377E-3,7.30072E-2,3.1087059E-3,-7.9093546E-2,-3.4101713E-2,3.7182584E-2],"split_indices":[9,7,1,5,2,8,5,0,0,0,0,7,0,5,5,8,7,0,7,6,3,0,0,0,0,0,0,0,0,0,0],"split_type":[0,0,0,0,0,0,0,0,0,0,0,0,0,0,0,0,0,0,0,0,0,0,0,0,0,0,0,0,0,0,0],"sum_hessian":[9.660865E1,1.5879671E1,8.072897E1,1.1294492E1,4.58518E0,2.9591475E1,5.11375E1,1.9174728E0,9.377019E0,3.1206496E0,1.4645301E0,2.8482267E1,1.1092072E0,1.9560343E1,3.157716E1,2.3762547E1,4.7197213E0,1.4900613E0,1.8070282E1,1.0617364E1,2.0959795E1,1.9037E0,2.1858847E1,2.7679565E0,1.9517647E0,1.93953E0,1.613075E1,8.224787E0,2.3925772E0,2.9710715E0,1.7988724E1],"tree_param":{"num_deleted":"0","num_feature":"11","num_nodes":"31","size_leaf_vector":"1"}},{"base_weights":[-1.8814813E-2,-1.1294012E0,2.0877898E-1,-1.259138E0,-6.442761E-1,-6.1887097E-2,3.1555852E-1,-1.1114115E-1,-2.941217E-2,1.36572085E-2,-7.843055E-2,3.4864655E-1,-4.6705487E-1,-7.686375E-2,3.6820015E-1,-8.2884276E-1,7.498247E-1,-9.5007503E-1,4.7632444E-1,5.424681E-1,1.18137665E-1,-8.881155E-3,-9.16544E-2,1.5027673E-2,7.5998254E-2,-4.192492E-2,-1.3738681E-1,-2.2524169E-2,6.0050372E-2,4.832199E-2,-4.831262E-2,-7.545744E-2,2.4439706E-2],"categories":[],"categories_nodes":[],"categories_segments":[],"categories_sizes":[],"default_left":[0,0,0,0,0,0,0,0,0,0,0,0,0,0,0,0,0,0,0,0,0,0,0,0,0,0,0,0,0,0,0,0,0],"id":10,"left_children":[1,3,5,7,9,11,13,-1,-1,-1,-1,15,17,-1,19,21,23,25,27,29,31,-1,-1,-1,-1,-1,-1,-1,-1,-1,-1,-1,-1],"loss_changes":[2.4557272E1,2.2859383E-1,2.3519278E0,8.798466E-1,1.6832175E0,4.099402E0,4.253093E0,0E0,0E0,0E0,0E0,6.445017E0,6.0748463E0,0E0,2.3962793E0,6.933558E-1,9.148941E-1,1.876473E0,1.2184082E0,2.693036E0,5.153223E0,0E0,0E0,0E0,0E0,0E0,0E0,0E0,0E0,0E0,0E0,0E0,0E0],"parents":[2147483647,0,0,1,1,2,2,3,3,4,4,5,5,6,6,11,11,12,12,14,14,15,15,16,16,17,17,18,18,19,19,20,20],"right_children":[2,4,6,8,10,12,14,-1,-1,-1,-1,16,18,-1,20,22,24,26,28,30,32,-1,-1,-1,-1,-1,-1,-1,-1,-1,-1,-1,-1],"split_conditions":[1E0,1.53E2,1E0,2.275E3,1.67E2,4.2E3,1.759E3,-1.1114115E-1,-2.941217E-2,1.36572085E-2,-7.843055E-2,8.3E1,2E0,-7.686375E-2,1.38E2,5.9E1,1E0,2.067E3,1E0,4.8E2,1E0,-8.881155E-3,-9.16544E-2,1.5027673E-2,7.5998254E-2,-4.192492E-2,-1.3738681E-1,-2.2524169E-2,6.0050372E-2,4.832199E-2,-4.831262E-2,-7.545744E-2,2.4439706E-2],"split_indices":[9,7,10,6,7,5,5,0,0,0,0,7,2,0,7,7,3,6,3,8,3,0,0,0,0,0,0,0,0,0,0,0,0],"split_type":[0,0,0,0,0,0,0,0,0,0,0,0,0,0,0,0,0,0,0,0,0,0,0,0,0,0,0,0,0,0,0,0,0],"sum_hessian":[9.522263E1,1.5521283E1,7.970135E1,1.0987428E1,4.533855E0,2.2666489E1,5.703486E1,9.100672E0,1.8867565E0,1.4675095E0,3.0663457E0,1.1327983E1,1.1338506E1,1.5758134E0,5.5459045E1,2.6078165E0,8.720166E0,7.4942646E0,3.8442404E0,3.1993515E1,2.3465532E1,1.2120872E0,1.3957292E0,2.7992132E0,5.9209533E0,5.9008865E0,1.5933784E0,1.0145969E0,2.8296435E0,3.0812101E1,1.1814128E0,2.9154875E0,2.0550045E1],"tree_param":{"num_deleted":"0","num_feature":"11","num_nodes":"33","size_leaf_vector":"1"}},{"base_weights":[-2.2408118E-2,-1.0781924E0,1.9157055E-1,-1.141524E0,-3.153657E-2,-3.3332687E-2,3.2128817E-1,-5.055432E-1,-9.784294E-2,-8.513698E-1,6.1039522E-2,6.622063E-1,1.0358513E-1,5.192197E-3,-6.752675E-2,-8.169317E-2,-2.0471165E-2,1.4499128E-1,-8.052906E-2,7.7005126E-2,8.422909E-1,-2.6095033E-1,2.9450732E-1,2.4592662E-2,-4.2661455E-2,4.3012638E-2,-5.8164805E-2,1.6206937E-2,8.41019E-2,1.607438E-3,-7.468073E-2,-8.354033E-3,4.5006394E-2],"categories":[],"categories_nodes":[],"categories_segments":[],"categories_sizes":[],"default_left":[0,0,0,0,0,0,0,0,0,0,0,0,0,0,0,0,0,0,0,0,0,0,0,0,0,0,0,0,0,0,0,0,0],"id":11,"left_children":[1,3,5,7,-1,9,11,13,-1,15,17,19,21,-1,-1,-1,-1,23,-1,25,27,29,31,-1,-1,-1,-1,-1,-1,-1,-1,-1,-1],"loss_changes":[2.1628698E1,2.4873734E-1,2.3356764E0,1.1970329E-1,0E0,2.3723843E0,3.6895638E0,6.9630885E-1,0E0,5.979538E-2,2.6450016E0,1.9952431E0,2.3101025E0,0E0,0E0,0E0,0E0,3.10776E0,0E0,2.502401E0,1.7719564E0,2.2037077E0,2.36106E0,0E0,0E0,0E0,0E0,0E0,0E0,0E0,0E0,0E0,0E0],"parents":[2147483647,0,0,1,1,2,2,3,3,5,5,6,6,7,7,9,9,10,10,11,11,12,12,17,17,19,19,20,20,21,21,22,22],"right_children":[2,4,6,8,-1,10,12,14,-1,16,18,20,22,-1,-1,-1,-1,24,-1,26,28,30,32,-1,-1,-1,-1,-1,-1,-1,-1,-1,-1],"split_conditions":[1E0,3E0,1E0,2.491E3,-3.153657E-2,3.42E2,3.522E3,2E0,-9.784294E-2,3.399E3,4.8E2,2.132E3,4.625E3,5.192197E-3,-6.752675E-2,-8.169317E-2,-2.0471165E-2,1.73E2,-8.052906E-2,2E0,1E0,2.358E3,1E0,2.4592662E-2,-4.2661455E-2,4.3012638E-2,-5.8164805E-2,1.6206937E-2,8.41019E-2,1.607438E-3,-7.468073E-2,-8.354033E-3,4.5006394E-2],"split_indices":[9,2,1,5,0,8,5,10,0,5,8,5,5,0,0,0,0,7,0,10,3,6,2,0,0,0,0,0,0,0,0,0,0],"split_type":[0,0,0,0,0,0,0,0,0,0,0,0,0,0,0,0,0,0,0,0,0,0,0,0,0,0,0,0,0,0,0,0,0],"sum_hessian":[9.382379E1,1.5130444E1,7.869335E1,1.3235968E1,1.8944755E0,2.9057226E1,4.9636124E1,2.321912E0,1.0914056E1,2.1757746E0,2.6881453E1,1.8548225E1,3.1087896E1,1.1658055E0,1.1561066E0,1.1367759E0,1.0389986E0,2.5722996E1,1.1584561E0,4.7006483E0,1.3847577E1,1.0559476E1,2.0528421E1,2.1194498E1,4.5284967E0,3.1991596E0,1.5014887E0,3.8948119E0,9.952765E0,8.131625E0,2.4278512E0,8.495815E0,1.2032606E1],"tree_param":{"num_deleted":"0","num_feature":"11","num_nodes":"33","size_leaf_vector":"1"}},{"base_weights":[-2.4363637E-2,-1.0300719E0,1.7680682E-1,-1.1636574E0,-5.5790347E-1,-3.7312925E-2,3.0167726E-1,-1.03581406E-1,-2.5242971E-2,-7.2273776E-2,1.843415E-2,-7.0435566E-1,7.021946E-2,6.332696E-1,9.4960734E-2,-8.3630666E-2,-1.2724838E-2,1.5501852E-1,-7.6204196E-2,6.908481E-2,8.122653E-1,-2.8127632E-1,2.7302897E-1,2.5657747E-2,-3.946001E-2,4.2463046E-2,-5.7509974E-2,1.5292019E-2,8.185831E-2,-6.0727775E-2,1.0625871E-2,3.393093E-2,-2.8917221E-2],"categories":[],"categories_nodes":[],"categories_segments":[],"categories_sizes":[],"default_left":[0,0,0,0,0,0,0,0,0,0,0,0,0,0,0,0,0,0,0,0,0,0,0,0,0,0,0,0,0,0,0,0,0],"id":12,"left_children":[1,3,5,7,9,11,13,-1,-1,-1,-1,15,17,19,21,-1,-1,23,-1,25,27,29,31,-1,-1,-1,-1,-1,-1,-1,-1,-1,-1],"loss_changes":[1.9105526E1,3.4340858E-1,2.1180286E0,8.530588E-1,1.6767192E0,2.1952255E0,3.3589501E0,0E0,0E0,0E0,0E0,6.228802E-1,2.4608717E0,1.8604317E0,2.214113E0,0E0,0E0,2.896268E0,0E0,2.4421098E0,1.6800575E0,2.226101E0,2.2780583E0,0E0,0E0,0E0,0E0,0E0,0E0,0E0,0E0,0E0,0E0],"parents":[2147483647,0,0,1,1,2,2,3,3,4,4,5,5,6,6,11,11,12,12,13,13,14,14,17,17,19,19,20,20,21,21,22,22],"right_children":[2,4,6,8,10,12,14,-1,-1,-1,-1,16,18,20,22,-1,-1,24,-1,26,28,30,32,-1,-1,-1,-1,-1,-1,-1,-1,-1,-1],"split_conditions":[1E0,1.53E2,1E0,2.275E3,2E0,2.454E3,3.522E3,-1.03581406E-1,-2.5242971E-2,-7.2273776E-2,1.843415E-2,1.89E2,4.8E2,2.132E3,1E0,-8.3630666E-2,-1.2724838E-2,1.76E2,-7.6204196E-2,2.925E3,1E0,5.05E3,2.55E2,2.5657747E-2,-3.946001E-2,4.2463046E-2,-5.7509974E-2,1.5292019E-2,8.185831E-2,-6.0727775E-2,1.0625871E-2,3.393093E-2,-2.8917221E-2],"split_indices":[9,7,1,6,2,5,5,0,0,0,0,6,8,5,10,0,0,7,0,6,3,5,7,0,0,0,0,0,0,0,0,0,0],"split_type":[0,0,0,0,0,0,0,0,0,0,0,0,0,0,0,0,0,0,0,0,0,0,0,0,0,0,0,0,0,0,0,0,0],"sum_hessian":[9.253259E1,1.4737125E1,7.779547E1,1.0345647E1,4.391478E0,2.8915031E1,4.888044E1,8.504336E0,1.8413103E0,2.951754E0,1.4397242E0,3.2436867E0,2.5671345E1,1.797823E1,3.0902208E1,1.4313954E0,1.8122914E0,2.4489342E1,1.1820033E0,4.663882E0,1.3314348E1,9.741011E0,2.1161198E1,1.9906359E1,4.582981E0,3.146546E0,1.5173358E0,3.858958E0,9.455391E0,4.1357403E0,5.60527E0,1.7358685E1,3.802513E0],"tree_param":{"num_deleted":"0","num_feature":"11","num_nodes":"33","size_leaf_vector":"1"}},{"base_weights":[-2.6151933E-2,-9.87116E-1,1.6302176E-1,-1.1192625E0,-5.2966934E-1,-1.8618362E-1,2.3549254E-1,-2.2426052E-2,-1.0032824E-1,1.9289095E-2,-7.0028014E-2,4.9197295E-1,-6.2242556E-1,4.6732247E-1,-1.6609807E-2,-8.753093E-3,6.1610486E-2,-8.09536E-1,2.3946762E-2,6.6512793E-1,1.4960001E-1,-6.743484E-2,4.292941E-2,-9.385687E-3,-8.0330245E-2,6.8776704E-2,2.8783074E-3,-2.893006E-2,5.1533367E-2,-8.584134E-3,3.3715744E-2],"categories":[],"categories_nodes":[],"categories_segments":[],"categories_sizes":[],"default_left":[0,0,0,0,0,0,0,0,0,0,0,0,0,0,0,0,0,0,0,0,0,0,0,0,0,0,0,0,0,0,0],"id":13,"left_children":[1,3,5,7,9,11,13,-1,-1,-1,-1,15,17,19,21,-1,-1,23,-1,25,27,-1,29,-1,-1,-1,-1,-1,-1,-1,-1],"loss_changes":[1.6929878E1,3.3288956E-1,2.0160356E0,8.9089775E-1,1.631399E0,4.4337234E0,3.8054073E0,0E0,0E0,0E0,0E0,1.0913086E0,1.7827828E0,2.0300403E0,1.6151626E0,0E0,0E0,9.186435E-1,0E0,2.4900665E0,3.8463402E0,0E0,1.801688E0,0E0,0E0,0E0,0E0,0E0,0E0,0E0,0E0],"parents":[2147483647,0,0,1,1,2,2,3,3,4,4,5,5,6,6,11,11,12,12,13,13,14,14,17,17,19,19,20,20,22,22],"right_children":[2,4,6,8,10,12,14,-1,-1,-1,-1,16,18,20,22,-1,-1,24,-1,26,28,-1,30,-1,-1,-1,-1,-1,-1,-1,-1],"split_conditions":[1E0,1.53E2,8.8E1,2.491E3,1.67E2,6.1E1,1.46E2,-2.2426052E-2,-1.0032824E-1,1.9289095E-2,-7.0028014E-2,2.383E3,2E0,4.006E3,2.014E3,-8.753093E-3,6.1610486E-2,1E0,2.3946762E-2,2E0,4.945E3,-6.743484E-2,2E0,-9.385687E-3,-8.0330245E-2,6.8776704E-2,2.8783074E-3,-2.893006E-2,5.1533367E-2,-8.584134E-3,3.3715744E-2],"split_indices":[9,7,7,5,7,7,7,0,0,0,0,5,2,5,5,0,0,0,0,10,5,0,2,0,0,0,0,0,0,0,0],"split_type":[0,0,0,0,0,0,0,0,0,0,0,0,0,0,0,0,0,0,0,0,0,0,0,0,0,0,0,0,0,0,0],"sum_hessian":[9.124401E1,1.4313959E1,7.693005E1,9.983252E0,4.3307085E0,1.2951808E1,6.3978245E1,1.8087418E0,8.174509E0,1.4345381E0,2.8961701E0,5.0200987E0,7.931709E0,3.288445E1,3.1093798E1,1.7794727E0,3.240626E0,6.6945205E0,1.2371883E0,1.959297E1,1.3291478E1,1.2054931E0,2.9888306E1,1.8207049E0,4.8738155E0,1.4684836E1,4.9081335E0,6.6678433E0,6.6236353E0,2.1909204E1,7.9790998E0],"tree_param":{"num_deleted":"0","num_feature":"11","num_nodes":"31","size_leaf_vector":"1"}},{"base_weights":[-2.5630701E-2,-9.473423E-1,1.5233472E-1,-2.4936229E-2,-1.0186526E0,-1.0312751E-1,2.5475606E-1,-9.656778E-2,-6.345135E-1,2.5102156E-1,-5.063344E-1,-6.832415E-2,3.0385727E-1,-5.7572108E-2,-8.514193E-2,-6.536738E-1,6.443226E-1,-1.0356296E0,5.689916E-1,5.719664E-2,4.4938675E-1,-5.876058E-2,4.216967E-2,-1.0170189E-2,-6.474047E-2,7.437281E-2,1.208262E-3,-1.3434906E-1,-5.452342E-2,5.4226373E-3,6.644368E-2,-1.54348845E-2,3.934748E-2,4.450169E-2,-2.1305352E-2],"categories":[],"categories_nodes":[],"categories_segments":[],"categories_sizes":[],"default_left":[0,0,0,0,0,0,0,0,0,0,0,0,0,0,0,0,0,0,0,0,0,0,0,0,0,0,0,0,0,0,0,0,0,0,0],"id":14,"left_children":[1,3,5,-1,7,9,11,-1,13,15,17,-1,19,21,-1,23,25,27,29,31,33,-1,-1,-1,-1,-1,-1,-1,-1,-1,-1,-1,-1,-1,-1],"loss_changes":[1.5090916E1,3.5717487E-1,2.0471048E0,0E0,1.7097092E-1,3.3850307E0,3.2767544E0,0E0,1.5175738E0,4.981043E0,6.8501906E0,0E0,1.9057717E0,1.8815343E0,0E0,2.5589335E-1,1.6800442E0,6.165581E-1,5.039822E-1,2.3901684E0,2.7257314E0,0E0,0E0,0E0,0E0,0E0,0E0,0E0,0E0,0E0,0E0,0E0,0E0,0E0,0E0],"parents":[2147483647,0,0,1,1,2,2,4,4,5,5,6,6,8,8,9,9,10,10,12,12,13,13,15,15,16,16,17,17,18,18,19,19,20,20],"right_children":[2,4,6,-1,8,10,12,-1,14,16,18,-1,20,22,-1,24,26,28,30,32,34,-1,-1,-1,-1,-1,-1,-1,-1,-1,-1,-1,-1,-1,-1],"split_conditions":[1E0,2.4E2,1E0,-2.4936229E-2,1.37E2,4.554E3,1.759E3,-9.656778E-2,1.67E2,9.6E1,2E0,-6.832415E-2,1E0,1E0,-8.514193E-2,5.9E1,1E0,4.923E3,6.4E3,4.75E3,2.55E2,-5.876058E-2,4.216967E-2,-1.0170189E-2,-6.474047E-2,7.437281E-2,1.208262E-3,-1.3434906E-1,-5.452342E-2,5.4226373E-3,6.644368E-2,-1.54348845E-2,3.934748E-2,4.450169E-2,-2.1305352E-2],"split_indices":[9,8,10,0,7,5,5,0,7,7,2,0,1,10,0,7,2,5,5,5,7,0,0,0,0,0,0,0,0,0,0,0,0,0,0],"split_type":[0,0,0,0,0,0,0,0,0,0,0,0,0,0,0,0,0,0,0,0,0,0,0,0,0,0,0,0,0,0,0,0,0,0,0],"sum_hessian":[9.01196E1,1.38848E1,7.62348E1,1.9423481E0,1.1942452E1,2.1815376E1,5.4419422E1,6.5747666E0,5.367686E0,1.1815179E1,1.0000198E1,1.612483E0,5.2806942E1,2.7755508E0,2.592135E0,3.3794768E0,8.435701E0,6.726304E0,3.2738945E0,2.0111912E1,3.269503E1,1.1675634E0,1.6079874E0,1.185254E0,2.1942227E0,5.4752913E0,2.9604104E0,1.0587269E0,5.6675773E0,1.5544002E0,1.7194945E0,1.3118513E1,6.9933977E0,2.8640564E1,4.0544653E0],"tree_param":{"num_deleted":"0","num_feature":"11","num_nodes":"35","size_leaf_vector":"1"}},{"base_weights":[-2.7676128E-2,-9.1241175E-1,1.4021403E-1,-1.0450513E0,-4.7344524E-1,-9.955914E-2,2.3714592E-1,-1.8187432E-2,-9.4889544E-2,-8.192624E-1,2.1073515E-2,4.045479E-2,-8.370791E-2,-6.44467E-2,2.8433704E-1,-2.0144098E-2,-7.55572E-2,-7.780627E-1,2.8182784E-1,4.484568E-1,5.9597895E-2,-8.295066E-3,-8.773079E-2,6.2015776E-2,-5.4877484E-3,4.068872E-2,-4.588031E-2,-7.263844E-2,1.9292004E-2],"categories":[],"categories_nodes":[],"categories_segments":[],"categories_sizes":[],"default_left":[0,0,0,0,0,0,0,0,0,0,0,0,0,0,0,0,0,0,0,0,0,0,0,0,0,0,0,0,0],"id":15,"left_children":[1,3,5,7,9,11,13,-1,-1,15,-1,17,-1,-1,19,-1,-1,21,23,25,27,-1,-1,-1,-1,-1,-1,-1,-1],"loss_changes":[1.3492205E1,3.485117E-1,1.8013288E0,9.1781616E-1,1.5380981E0,3.05472E0,2.9238794E0,0E0,0E0,3.0385017E-2,0E0,4.320654E0,0E0,0E0,1.9330115E0,0E0,0E0,9.5907974E-1,2.9517946E0,2.1699595E0,4.360811E0,0E0,0E0,0E0,0E0,0E0,0E0,0E0,0E0],"parents":[2147483647,0,0,1,1,2,2,3,3,4,4,5,5,6,6,9,9,11,11,14,14,17,17,18,18,19,19,20,20],"right_children":[2,4,6,8,10,12,14,-1,-1,16,-1,18,-1,-1,20,-1,-1,22,24,26,28,-1,-1,-1,-1,-1,-1,-1,-1],"split_conditions":[1E0,1.53E2,1E0,2.491E3,2E0,9.56E3,1.759E3,-1.8187432E-2,-9.4889544E-2,1.447E3,2.1073515E-2,1.07E2,-8.370791E-2,-6.44467E-2,1.38E2,-2.0144098E-2,-7.55572E-2,2.679E3,4.006E3,4.8E2,1E0,-8.295066E-3,-8.773079E-2,6.2015776E-2,-5.4877484E-3,4.068872E-2,-4.588031E-2,-7.263844E-2,1.9292004E-2],"split_indices":[9,7,10,5,2,5,5,0,0,6,0,7,0,0,7,0,0,5,5,8,3,0,0,0,0,0,0,0,0],"split_type":[0,0,0,0,0,0,0,0,0,0,0,0,0,0,0,0,0,0,0,0,0,0,0,0,0,0,0,0,0],"sum_hessian":[8.897183E1,1.3483398E1,7.5488434E1,9.294295E0,4.189103E0,2.1724085E1,5.3764347E1,1.7517526E0,7.542543E0,2.7749639E0,1.4141392E0,1.9759296E1,1.964789E0,1.6320525E0,5.2132298E1,1.0458704E0,1.7290934E0,3.9934993E0,1.5765798E1,2.9554296E1,2.2578E1,1.7065152E0,2.2869842E0,6.0440726E0,9.7217245E0,2.8385838E1,1.1684592E0,2.9349635E0,1.9643036E1],"tree_param":{"num_deleted":"0","num_feature":"11","num_nodes":"29","size_leaf_vector":"1"}},{"base_weights":[-3.0552728E-2,-8.788664E-1,1.2748718E-1,-2.0691624E-2,-9.5292145E-1,-6.628447E-2,2.4356003E-1,-9.132856E-2,-5.824481E-1,-6.448608E-2,2.3344185E-2,5.659782E-1,5.46093E-2,-1.5718779E-2,-8.1257865E-2,9.962613E-2,-7.0085004E-2,4.5047853E-2,7.417959E-1,-1.392865E-1,4.0571836E-1,-5.4540627E-2,4.1862305E-2,1.9367872E-2,-3.6420852E-2,3.9880108E-2,-5.4941352E-2,1.0975787E-2,7.708825E-2,-2.3376972E-3,-6.82517E-2,4.542457E-2,-3.172872E-2],"categories":[],"categories_nodes":[],"categories_segments":[],"categories_sizes":[],"default_left":[0,0,0,0,0,0,0,0,0,0,0,0,0,0,0,0,0,0,0,0,0,0,0,0,0,0,0,0,0,0,0,0,0],"id":16,"left_children":[1,3,5,-1,7,9,11,-1,13,-1,15,17,19,21,-1,23,-1,25,27,29,31,-1,-1,-1,-1,-1,-1,-1,-1,-1,-1,-1,-1],"loss_changes":[1.20140295E1,3.9969444E-1,1.718937E0,0E0,1.8754959E-1,1.9514852E0,2.866525E0,0E0,1.495846E0,0E0,1.9376227E0,1.5663424E0,2.17332E0,1.6790354E0,0E0,2.1466162E0,0E0,2.1582785E0,1.6104193E0,1.6074573E0,1.6970457E0,0E0,0E0,0E0,0E0,0E0,0E0,0E0,0E0,0E0,0E0,0E0,0E0],"parents":[2147483647,0,0,1,1,2,2,4,4,5,5,6,6,8,8,10,10,11,11,12,12,13,13,15,15,17,17,18,18,19,19,20,20],"right_children":[2,4,6,-1,8,10,12,-1,14,-1,16,18,20,22,-1,24,-1,26,28,30,32,-1,-1,-1,-1,-1,-1,-1,-1,-1,-1,-1,-1],"split_conditions":[1E0,2.4E2,1E0,-2.0691624E-2,1.37E2,3.42E2,3.522E3,-9.132856E-2,1.67E2,-6.448608E-2,4.8E2,2.132E3,6.216E3,1E0,-8.1257865E-2,1.73E2,-7.0085004E-2,2.925E3,1E0,6E3,1.9484E4,-5.4540627E-2,4.1862305E-2,1.9367872E-2,-3.6420852E-2,3.9880108E-2,-5.4941352E-2,1.0975787E-2,7.708825E-2,-2.3376972E-3,-6.82517E-2,4.542457E-2,-3.172872E-2],"split_indices":[9,8,1,0,7,8,5,0,7,0,8,5,5,10,0,7,0,6,3,5,5,0,0,0,0,0,0,0,0,0,0,0,0],"split_type":[0,0,0,0,0,0,0,0,0,0,0,0,0,0,0,0,0,0,0,0,0,0,0,0,0,0,0,0,0,0,0,0,0],"sum_hessian":[8.777612E1,1.30682745E1,7.470785E1,1.8731344E0,1.119514E1,2.8147478E1,4.656037E1,6.0382957E0,5.1568446E0,2.1778746E0,2.5969603E1,1.6466759E1,3.0093615E1,2.6833146E0,2.4735298E0,2.475894E1,1.2106639E0,4.472223E0,1.1994535E1,1.9775904E1,1.0317712E1,1.081743E0,1.6015717E0,2.0149157E1,4.609783E0,2.9581087E0,1.5141144E0,3.6537485E0,8.340787E0,1.8035988E1,1.739915E0,8.826795E0,1.4909174E0],"tree_param":{"num_deleted":"0","num_feature":"11","num_nodes":"33","size_leaf_vector":"1"}},{"base_weights":[-3.2222867E-2,-8.4833056E-1,1.17007084E-1,-1.971751E-2,-9.221478E-1,-1.9878496E-1,1.8455935E-1,-8.8759E-2,-5.609327E-1,4.5318484E-1,-6.0231787E-1,3.9805123E-1,-3.77256E-2,-1.8299751E-2,-7.859893E-2,-9.069655E-3,5.8127083E-2,-2.0319694E-1,-1.1106007E0,5.565314E-1,1.792961E-2,-1.3852918E-1,3.5372743E-1,-5.3099386E-2,3.9562475E-2,-4.2866845E-2,3.6111467E-2,-1.1578213E-1,-1.588752E-2,6.3364245E-2,1.0422153E-2,1.5370367E-2,-6.401555E-2,-1.8263126E-2,3.1735297E-2,-9.0458095E-3,6.0115192E-2],"categories":[],"categories_nodes":[],"categories_segments":[],"categories_sizes":[],"default_left":[0,0,0,0,0,0,0,0,0,0,0,0,0,0,0,0,0,0,0,0,0,0,0,0,0,0,0,0,0,0,0,0,0,0,0,0,0],"id":17,"left_children":[1,3,5,-1,7,9,11,-1,13,15,17,19,21,23,-1,-1,-1,25,27,29,31,33,35,-1,-1,-1,-1,-1,-1,-1,-1,-1,-1,-1,-1,-1,-1],"loss_changes":[1.077494E1,3.8014126E-1,1.6363233E0,0E0,1.7708397E-1,3.8760853E0,2.9710827E0,0E0,1.3675803E0,9.8180056E-1,1.577564E0,1.9093437E0,1.2892369E0,1.542102E0,0E0,0E0,0E0,1.592524E0,8.443041E-1,2.1508527E0,1.6370591E0,1.3258293E0,1.3321168E0,0E0,0E0,0E0,0E0,0E0,0E0,0E0,0E0,0E0,0E0,0E0,0E0,0E0,0E0],"parents":[2147483647,0,0,1,1,2,2,4,4,5,5,6,6,8,8,9,9,10,10,11,11,12,12,13,13,17,17,18,18,19,19,20,20,21,21,22,22],"right_children":[2,4,6,-1,8,10,12,-1,14,16,18,20,22,24,-1,-1,-1,26,28,30,32,34,36,-1,-1,-1,-1,-1,-1,-1,-1,-1,-1,-1,-1,-1,-1],"split_conditions":[1E0,2.4E2,8.8E1,-1.971751E-2,1.37E2,6.1E1,1.46E2,-8.8759E-2,1.67E2,2.383E3,3.522E3,2E0,1E0,1E0,-7.859893E-2,-9.069655E-3,5.8127083E-2,7.6E1,4.6E3,4.006E3,2.9E3,5.302E3,7.451E3,-5.3099386E-2,3.9562475E-2,-4.2866845E-2,3.6111467E-2,-1.1578213E-1,-1.588752E-2,6.3364245E-2,1.0422153E-2,1.5370367E-2,-6.401555E-2,-1.8263126E-2,3.1735297E-2,-9.0458095E-3,6.0115192E-2],"split_indices":[9,8,7,0,7,7,7,0,7,5,5,10,4,10,0,0,0,7,5,5,6,6,5,0,0,0,0,0,0,0,0,0,0,0,0,0,0],"split_type":[0,0,0,0,0,0,0,0,0,0,0,0,0,0,0,0,0,0,0,0,0,0,0,0,0,0,0,0,0,0,0,0,0,0,0,0,0],"sum_hessian":[8.66581E1,1.2672129E1,7.398597E1,1.8584385E0,1.081369E1,1.269534E1,6.1290627E1,5.756573E0,5.0571165E0,4.806558E0,7.888782E0,3.086033E1,3.0430296E1,2.6672225E0,2.389894E0,1.7550421E0,3.051516E0,5.20299E0,2.685792E0,2.145234E1,9.407992E0,2.471263E1,5.717666E0,1.0506345E0,1.616588E0,3.5701764E0,1.6328135E0,1.5329682E0,1.1528239E0,1.3264844E1,8.187495E0,8.3872795E0,1.0207126E0,2.16545E1,3.058131E0,2.9596183E0,2.7580476E0],"tree_param":{"num_deleted":"0","num_feature":"11","num_nodes":"37","size_leaf_vector":"1"}},{"base_weights":[-3.211692E-2,-8.1985927E-1,1.0887212E-1,-8.9013296E-1,-1.6697882E-2,-1.1915417E-1,2.0216985E-1,-2.3293564E-2,-9.8606414E-1,1.4462268E-2,-7.8232974E-2,-6.052343E-2,2.4738279E-1,-8.800503E-2,-4.6345857E-1,-7.468047E-1,2.474815E-1,5.529722E-2,4.4165727E-1,-6.577001E-2,1.4271112E-2,-9.9893045E-3,-8.157996E-2,5.7696003E-2,-5.250643E-3,-5.8471956E-3,6.332427E-2,5.494403E-2,3.5051845E-3],"categories":[],"categories_nodes":[],"categories_segments":[],"categories_sizes":[],"default_left":[0,0,0,0,0,0,0,0,0,0,0,0,0,0,0,0,0,0,0,0,0,0,0,0,0,0,0,0,0],"id":18,"left_children":[1,3,5,7,-1,9,11,-1,13,15,-1,-1,17,-1,19,21,23,25,27,-1,-1,-1,-1,-1,-1,-1,-1,-1,-1],"loss_changes":[9.71937E0,3.8455296E-1,1.6075006E0,3.7966824E-1,0E0,2.5660205E0,2.4926755E0,0E0,6.110859E-2,3.7735431E0,0E0,0E0,1.8991623E0,0E0,9.3953085E-1,7.1976805E-1,2.456269E0,2.615959E0,2.4553394E0,0E0,0E0,0E0,0E0,0E0,0E0,0E0,0E0,0E0,0E0],"parents":[2147483647,0,0,1,1,2,2,3,3,5,5,6,6,8,8,9,9,12,12,14,14,15,15,16,16,17,17,18,18],"right_children":[2,4,6,8,-1,10,12,-1,14,16,-1,-1,18,-1,20,22,24,26,28,-1,-1,-1,-1,-1,-1,-1,-1,-1,-1],"split_conditions":[1E0,3E0,1E0,2.491E3,-1.6697882E-2,9.56E3,1.759E3,-2.3293564E-2,1.61E2,1.07E2,-7.8232974E-2,-6.052343E-2,1.89E2,-8.800503E-2,1E0,2.679E3,4.006E3,1.2841E4,2.436E3,-6.577001E-2,1.4271112E-2,-9.9893045E-3,-8.157996E-2,5.7696003E-2,-5.250643E-3,-5.8471956E-3,6.332427E-2,5.494403E-2,3.5051845E-3],"split_indices":[9,2,10,5,0,5,5,0,7,7,0,0,6,0,2,5,5,5,6,0,0,0,0,0,0,0,0,0,0],"split_type":[0,0,0,0,0,0,0,0,0,0,0,0,0,0,0,0,0,0,0,0,0,0,0,0,0,0,0,0,0],"sum_hessian":[8.57085E1,1.2280289E1,7.3428215E1,1.06043825E1,1.6759064E0,2.123971E1,5.2188503E1,2.0210137E0,8.583369E0,1.9230713E1,2.0089984E0,1.64182E0,5.0546684E1,6.1392283E0,2.4441407E0,3.990139E0,1.5240573E1,2.6062485E1,2.44842E1,1.3877745E0,1.0563662E0,1.6615561E0,2.3285828E0,5.5462327E0,9.694341E0,2.2959562E1,3.1029236E0,1.4700013E1,9.784187E0],"tree_param":{"num_deleted":"0","num_feature":"11","num_nodes":"29","size_leaf_vector":"1"}},{"base_weights":[-3.2549918E-2,-7.909872E-1,1.00479394E-1,-1.5978208E-2,-8.685578E-1,-8.117826E-2,2.1128796E-1,-8.4825255E-2,-5.1495385E-1,-6.594395E-1,1.6788322E-2,5.1586646E-1,4.198485E-2,1.8124701E-2,-7.527237E-2,-7.429523E-2,-1.3917222E-2,9.498264E-2,-6.77986E-2,6.383328E-1,-1.4394128E-1,-2.2820054E-1,2.763378E-1,-2.4369897E-2,2.5486032E-2,4.5920324E-2,-7.342594E-3,6.78904E-2,-2.5672192E-2,-5.9603553E-2,3.4039244E-2,-7.059886E-2,-3.9426917E-3,8.13034E-2,-1.0088586E-4],"categories":[],"categories_nodes":[],"categories_segments":[],"categories_sizes":[],"default_left":[0,0,0,0,0,0,0,0,0,0,0,0,0,0,0,0,0,0,0,0,0,0,0,0,0,0,0,0,0,0,0,0,0,0,0],"id":19,"left_children":[1,3,5,-1,7,9,11,-1,13,15,17,19,21,23,-1,-1,-1,25,-1,27,29,31,33,-1,-1,-1,-1,-1,-1,-1,-1,-1,-1,-1,-1],"loss_changes":[8.731923E0,4.186287E-1,1.5036463E0,0E0,2.0758629E-1,1.637021E0,2.3579106E0,0E0,1.3458608E0,3.8520253E-1,1.8050741E0,1.4169049E0,2.0099907E0,4.442269E-1,0E0,0E0,0E0,2.226728E0,0E0,3.0994592E0,1.4750084E0,1.6925333E0,3.4764605E0,0E0,0E0,0E0,0E0,0E0,0E0,0E0,0E0,0E0,0E0,0E0,0E0],"parents":[2147483647,0,0,1,1,2,2,4,4,5,5,6,6,8,8,9,9,10,10,11,11,12,12,13,13,17,17,19,19,20,20,21,21,22,22],"right_children":[2,4,6,-1,8,10,12,-1,14,16,18,20,22,24,-1,-1,-1,26,-1,28,30,32,34,-1,-1,-1,-1,-1,-1,-1,-1,-1,-1,-1,-1],"split_conditions":[1E0,2.4E2,1E0,-1.5978208E-2,1.37E2,2.454E3,3.522E3,-8.4825255E-2,1.67E2,1.89E2,4.8E2,1.61E2,5.266E3,1.51E2,-7.527237E-2,-7.429523E-2,-1.3917222E-2,3.34E3,-6.77986E-2,2.925E3,2.598E3,9.5E1,1.45E2,-2.4369897E-2,2.5486032E-2,4.5920324E-2,-7.342594E-3,6.78904E-2,-2.5672192E-2,-5.9603553E-2,3.4039244E-2,-7.059886E-2,-3.9426917E-3,8.13034E-2,-1.0088586E-4],"split_indices":[9,8,1,0,7,5,5,0,7,6,8,7,5,7,0,0,0,5,0,6,6,7,7,0,0,0,0,0,0,0,0,0,0,0,0],"split_type":[0,0,0,0,0,0,0,0,0,0,0,0,0,0,0,0,0,0,0,0,0,0,0,0,0,0,0,0,0,0,0,0,0,0,0],"sum_hessian":[8.475745E1,1.1909887E1,7.284756E1,1.7959056E0,1.0113982E1,2.7701536E1,4.514602E1,5.261887E0,4.8520947E0,3.18288E0,2.4518656E1,1.5397936E1,2.9748083E1,2.580296E0,2.2717986E0,1.4601209E0,1.722759E0,2.3300648E1,1.2180095E0,1.3014815E1,2.3831208E0,1.3829878E1,1.5918205E1,1.2372911E0,1.343005E0,5.9546237E0,1.7346024E1,1.0769154E1,2.2456617E0,1.0092925E0,1.3738282E0,2.1253304E0,1.1704547E1,3.6166961E0,1.2301509E1],"tree_param":{"num_deleted":"0","num_feature":"11","num_nodes":"35","size_leaf_vector":"1"}},{"base_weights":[-3.3272047E-2,-7.639529E-1,9.2332415E-2,-1.5224951E-2,-8.413612E-1,-1.23036146E-1,1.8130392E-1,-8.272631E-2,-4.946497E-1,3.5900124E-3,-7.260709E-2,-5.7280596E-2,2.2460625E-1,1.6944176E-2,-7.301914E-2,-6.917252E-1,2.2350699E-1,5.0147925E-2,4.056924E-1,-2.3454282E-2,2.4236808E-2,-1.0090705E-2,-7.416687E-2,5.4800242E-2,-5.397604E-3,-5.6524626E-3,6.09322E-2,6.0306992E-2,1.0818712E-2],"categories":[],"categories_nodes":[],"categories_segments":[],"categories_sizes":[],"default_left":[0,0,0,0,0,0,0,0,0,0,0,0,0,0,0,0,0,0,0,0,0,0,0,0,0,0,0,0,0],"id":20,"left_children":[1,3,5,-1,7,9,11,-1,13,15,-1,-1,17,19,-1,21,23,25,27,-1,-1,-1,-1,-1,-1,-1,-1,-1,-1],"loss_changes":[7.852456E0,3.9695835E-1,1.4258275E0,0E0,2.075553E-1,2.1897116E0,2.1905441E0,0E0,1.247846E0,3.2046165E0,0E0,0E0,1.5780184E0,4.057356E-1,0E0,5.5357814E-1,2.182585E0,2.3667583E0,2.2223048E0,0E0,0E0,0E0,0E0,0E0,0E0,0E0,0E0,0E0,0E0],"parents":[2147483647,0,0,1,1,2,2,4,4,5,5,6,6,8,8,9,9,12,12,13,13,15,15,16,16,17,17,18,18],"right_children":[2,4,6,-1,8,10,12,-1,14,16,-1,-1,18,20,-1,22,24,26,28,-1,-1,-1,-1,-1,-1,-1,-1,-1,-1],"split_conditions":[1E0,2.4E2,1E0,-1.5224951E-2,1.37E2,9.56E3,1.759E3,-8.272631E-2,1.67E2,1.07E2,-7.260709E-2,-5.7280596E-2,1.89E2,1.51E2,-7.301914E-2,2.679E3,4.006E3,1.2841E4,1.881E3,-2.3454282E-2,2.4236808E-2,-1.0090705E-2,-7.416687E-2,5.4800242E-2,-5.397604E-3,-5.6524626E-3,6.09322E-2,6.0306992E-2,1.0818712E-2],"split_indices":[9,8,10,0,7,5,5,0,7,7,0,0,6,7,0,5,5,5,6,0,0,0,0,0,0,0,0,0,0],"split_type":[0,0,0,0,0,0,0,0,0,0,0,0,0,0,0,0,0,0,0,0,0,0,0,0,0,0,0,0,0],"sum_hessian":[8.37918E1,1.154554E1,7.224626E1,1.7839528E0,9.761587E0,2.1008718E1,5.1237545E1,4.999892E0,4.7616944E0,1.8946236E1,2.062483E0,1.6436071E0,4.959394E1,2.572876E0,2.1888187E0,4.036998E0,1.4909237E1,2.5909586E1,2.3684355E1,1.2224016E0,1.3504742E0,1.6376073E0,2.3993905E0,5.2416754E0,9.667562E0,2.2918957E1,2.990629E0,9.573588E0,1.4110765E1],"tree_param":{"num_deleted":"0","num_feature":"11","num_nodes":"29","size_leaf_vector":"1"}},{"base_weights":[-3.3305466E-2,-7.383193E-1,8.535429E-2,-8.133371E-1,-1.1687897E-2,1.1213063E-1,-4.5250762E-2,-1.5999023E-2,-9.22175E-1,-3.3293033E-1,1.5230888E-1,-8.346073E-2,-4.0684596E-1,2.0091169E-1,-8.329193E-2,4.7748488E-1,3.1596668E-2,-6.1512124E-2,1.616875E-2,-3.392258E-2,4.5412812E-2,-6.1016984E-2,5.3913552E-2,-4.8803486E-2,8.451874E-3],"categories":[],"categories_nodes":[],"categories_segments":[],"categories_sizes":[],"default_left":[0,0,0,0,0,0,0,0,0,0,0,0,0,0,0,0,0,0,0,0,0,0,0,0,0],"id":21,"left_children":[1,3,5,7,-1,9,-1,-1,11,13,15,-1,17,19,-1,21,23,-1,-1,-1,-1,-1,-1,-1,-1],"loss_changes":[7.082647E0,4.228196E-1,1.3309798E0,5.233283E-1,0E0,1.3145877E0,0E0,0E0,1.20128155E-1,2.5404897E0,2.5564964E0,0E0,8.829187E-1,1.2386787E0,0E0,4.81755E0,2.3854601E0,0E0,0E0,0E0,0E0,0E0,0E0,0E0,0E0],"parents":[2147483647,0,0,1,1,2,2,3,3,5,5,8,8,9,9,10,10,12,12,13,13,15,15,16,16],"right_children":[2,4,6,8,-1,10,-1,-1,12,14,16,-1,18,20,-1,22,24,-1,-1,-1,-1,-1,-1,-1,-1],"split_conditions":[1E0,3E0,4.8E2,2.491E3,-1.1687897E-2,2.045E3,-4.5250762E-2,-1.5999023E-2,1.61E2,2.791E3,3.358E3,-8.346073E-2,1E0,1.125E3,-8.329193E-2,3.42E2,3.601E3,-6.1512124E-2,1.616875E-2,-3.392258E-2,4.5412812E-2,-6.1016984E-2,5.3913552E-2,-4.8803486E-2,8.451874E-3],"split_indices":[9,2,8,5,0,5,0,0,7,6,5,0,2,6,0,8,5,0,0,0,0,0,0,0,0],"split_type":[0,0,0,0,0,0,0,0,0,0,0,0,0,0,0,0,0,0,0,0,0,0,0,0,0],"sum_hessian":[8.290987E1,1.1191818E1,7.171805E1,9.602128E0,1.5896897E0,6.967975E1,2.038299E0,1.8747233E0,7.727405E0,5.166233E0,6.451351E1,5.4276466E0,2.2997582E0,3.3542082E0,1.8120251E0,1.6665155E1,4.784836E1,1.2775383E0,1.0222198E0,1.1826922E0,2.171516E0,1.8845019E0,1.4780654E1,4.2018957E0,4.364646E1],"tree_param":{"num_deleted":"0","num_feature":"11","num_nodes":"25","size_leaf_vector":"1"}},{"base_weights":[-3.471775E-2,-7.127073E-1,7.7093646E-2,-1.1950071E-2,-7.9394555E-1,3.1971093E-4,3.1387538E-1,-7.95007E-2,-4.525165E-1,-3.096343E-1,1.2705994E-1,6.1422862E-2,8.0043636E-2,5.1200002E-2,-7.026173E-2,1.975864E-1,-8.6775047E-1,6.692863E-2,7.2774994E-1,6.3931763E-1,-3.8673982E-1,-2.0010177E-2,2.4608472E-2,-4.534226E-2,5.024659E-2,-1.1816597E-1,-4.4094224E-2,1.444003E-2,-5.007662E-2,6.8685524E-2,1.5921926E-2,6.9598205E-2,-2.1281585E-2,-6.389034E-2,1.664191E-2],"categories":[],"categories_nodes":[],"categories_segments":[],"categories_sizes":[],"default_left":[0,0,0,0,0,0,0,0,0,0,0,0,0,0,0,0,0,0,0,0,0,0,0,0,0,0,0,0,0,0,0,0,0,0,0],"id":22,"left_children":[1,3,5,-1,7,9,11,-1,13,15,17,19,-1,21,-1,23,25,27,29,31,33,-1,-1,-1,-1,-1,-1,-1,-1,-1,-1,-1,-1,-1,-1],"loss_changes":[6.3520975E0,4.240508E-1,1.3125947E0,0E0,2.4148607E-1,2.2208018E0,3.003355E0,0E0,1.2408592E0,4.8162303E0,1.4005637E0,3.8711853E0,0E0,3.4729624E-1,0E0,3.4524727E0,7.2851276E-1,3.0697498E0,7.465088E-2,1.586412E0,2.2494016E0,0E0,0E0,0E0,0E0,0E0,0E0,0E0,0E0,0E0,0E0,0E0,0E0,0E0,0E0],"parents":[2147483647,0,0,1,1,2,2,4,4,5,5,6,6,8,8,9,9,10,10,11,11,13,13,15,15,16,16,17,17,18,18,19,19,20,20],"right_children":[2,4,6,-1,8,10,12,-1,14,16,18,20,-1,22,-1,24,26,28,30,32,34,-1,-1,-1,-1,-1,-1,-1,-1,-1,-1,-1,-1,-1,-1],"split_conditions":[1E0,2.4E2,2E0,-1.1950071E-2,1.37E2,1E0,6.4E3,-7.95007E-2,1.67E2,4.554E3,2.79E2,1.27E2,8.0043636E-2,1.51E2,-7.026173E-2,9.6E1,4.923E3,1.88E2,4.25E3,4.288E3,1.911E3,-2.0010177E-2,2.4608472E-2,-4.534226E-2,5.024659E-2,-1.1816597E-1,-4.4094224E-2,1.444003E-2,-5.007662E-2,6.8685524E-2,1.5921926E-2,6.9598205E-2,-2.1281585E-2,-6.389034E-2,1.664191E-2],"split_indices":[9,8,2,0,7,10,5,0,7,5,7,7,0,7,0,7,5,7,6,5,6,0,0,0,0,0,0,0,0,0,0,0,0,0,0],"split_type":[0,0,0,0,0,0,0,0,0,0,0,0,0,0,0,0,0,0,0,0,0,0,0,0,0,0,0,0,0,0,0,0,0,0,0],"sum_hessian":[8.206825E1,1.0857508E1,7.121075E1,1.726204E0,9.131304E0,5.4531002E1,1.6679743E1,4.5550075E0,4.5762963E0,1.5407526E1,3.9123478E1,1.2992525E1,3.687218E0,2.4992013E0,2.077095E0,8.410222E0,6.997304E0,3.657373E1,2.5497468E0,5.488591E0,7.503934E0,1.160212E0,1.3389894E0,2.9160593E0,5.4941626E0,1.1390613E0,5.8582425E0,3.2058483E1,4.5152454E0,1.5439036E0,1.0058433E0,4.40528E0,1.083311E0,4.2310514E0,3.272882E0],"tree_param":{"num_deleted":"0","num_feature":"11","num_nodes":"35","size_leaf_vector":"1"}},{"base_weights":[-3.425599E-2,-6.890715E-1,7.1440645E-2,-7.6633996E-1,-9.227335E-3,-2.0902246E-1,1.3287082E-1,-1.234675E-2,-8.820612E-1,4.3139252E-1,-5.960027E-1,3.5089695E-1,-3.828076E-2,-8.0590926E-2,-3.7508416E-1,-1.0686672E-2,7.070939E-1,-2.2877136E-1,-1.0269763E0,5.866919E-1,-9.982489E-3,-6.820977E-1,8.908392E-2,-5.8827437E-2,1.6597576E-2,6.537493E-2,1.934316E-2,-4.113766E-2,3.0867057E-2,-1.0305956E-1,-1.7851314E-2,8.676543E-3,6.938436E-2,-4.2597547E-2,2.2541113E-2,-8.855582E-2,-7.3531684E-3,-2.6459785E-3,4.406186E-2],"categories":[],"categories_nodes":[],"categories_segments":[],"categories_sizes":[],"default_left":[0,0,0,0,0,0,0,0,0,0,0,0,0,0,0,0,0,0,0,0,0,0,0,0,0,0,0,0,0,0,0,0,0,0,0,0,0,0,0],"id":23,"left_children":[1,3,5,7,-1,9,11,-1,13,15,17,19,21,-1,23,-1,25,27,29,31,33,35,37,-1,-1,-1,-1,-1,-1,-1,-1,-1,-1,-1,-1,-1,-1,-1,-1],"loss_changes":[5.7438784E0,4.2270803E-1,1.2639382E0,5.709195E-1,0E0,3.5483487E0,2.2325563E0,0E0,1.4212465E-1,9.639809E-1,1.1416688E0,2.2396963E0,2.866593E0,0E0,8.273543E-1,0E0,2.7335882E-3,1.2480497E0,4.9277353E-1,2.0389109E0,1.8812835E0,1.3442025E0,1.6792275E0,0E0,0E0,0E0,0E0,0E0,0E0,0E0,0E0,0E0,0E0,0E0,0E0,0E0,0E0,0E0,0E0],"parents":[2147483647,0,0,1,1,2,2,3,3,5,5,6,6,8,8,9,9,10,10,11,11,12,12,14,14,16,16,17,17,18,18,19,19,20,20,21,21,22,22],"right_children":[2,4,6,8,-1,10,12,-1,14,16,18,20,22,-1,24,-1,26,28,30,32,34,36,38,-1,-1,-1,-1,-1,-1,-1,-1,-1,-1,-1,-1,-1,-1,-1,-1],"split_conditions":[1E0,3E0,8.8E1,2.491E3,-9.227335E-3,6.1E1,1.38E2,-1.234675E-2,1.61E2,2.383E3,3.522E3,4.2E3,1E0,-8.0590926E-2,1E0,-1.0686672E-2,5.4E1,7.6E1,4.6E3,1E0,4.625E3,4.095E3,1E0,-5.8827437E-2,1.6597576E-2,6.537493E-2,1.934316E-2,-4.113766E-2,3.0867057E-2,-1.0305956E-1,-1.7851314E-2,8.676543E-3,6.938436E-2,-4.2597547E-2,2.2541113E-2,-8.855582E-2,-7.3531684E-3,-2.6459785E-3,4.406186E-2],"split_indices":[9,2,7,5,0,7,7,0,7,5,5,5,3,0,2,0,7,7,5,1,5,5,4,0,0,0,0,0,0,0,0,0,0,0,0,0,0,0,0],"split_type":[0,0,0,0,0,0,0,0,0,0,0,0,0,0,0,0,0,0,0,0,0,0,0,0,0,0,0,0,0,0,0,0,0,0,0,0,0,0,0],"sum_hessian":[8.127862E1,1.0529092E1,7.074953E1,8.9835005E0,1.5455912E0,1.2280333E1,5.8469193E1,1.7996277E0,7.183873E0,4.5823E0,7.698032E0,2.5251574E1,3.321762E1,4.9685855E0,2.2152874E0,1.671824E0,2.9104764E0,4.982923E0,2.7151089E0,1.4894155E1,1.0357418E1,4.7667356E0,2.8450886E1,1.2067459E0,1.0085417E0,1.742058E0,1.1684184E0,3.5141485E0,1.4687743E0,1.5942962E0,1.1208127E0,6.020386E0,8.873769E0,3.4155035E0,6.941915E0,2.2624698E0,2.5042655E0,2.3232222E1,5.2186646E0],"tree_param":{"num_deleted":"0","num_feature":"11","num_nodes":"39","size_leaf_vector":"1"}},{"base_weights":[-3.404434E-2,-6.6528034E-1,6.580197E-2,-8.982318E-3,-7.5037E-1,9.1944925E-2,-4.430039E-2,-7.6598294E-2,-4.1403812E-1,-3.502981E-1,1.3202555E-1,8.174539E-2,-6.7767665E-2,1.7833295E-1,-8.150571E-2,4.3915623E-1,2.2546152E-2,-1.6846074E-2,2.4852766E-2,-3.1832043E-2,4.2677972E-2,-5.5957783E-2,5.0648812E-2,-4.6557732E-2,7.4935923E-3],"categories":[],"categories_nodes":[],"categories_segments":[],"categories_sizes":[],"default_left":[0,0,0,0,0,0,0,0,0,0,0,0,0,0,0,0,0,0,0,0,0,0,0,0,0],"id":24,"left_children":[1,3,5,-1,7,9,-1,-1,11,13,15,17,-1,19,-1,21,23,-1,-1,-1,-1,-1,-1,-1,-1],"loss_changes":[5.180468E0,4.437394E-1,1.2054338E0,0E0,2.6869202E-1,1.2737532E0,0E0,0E0,1.2288322E0,2.3121533E0,2.1495576E0,2.9494584E-1,0E0,1.0753542E0,0E0,4.158006E0,2.1355016E0,0E0,0E0,0E0,0E0,0E0,0E0,0E0,0E0],"parents":[2147483647,0,0,1,1,2,2,4,4,5,5,8,8,9,9,10,10,11,11,13,13,15,15,16,16],"right_children":[2,4,6,-1,8,10,-1,-1,12,14,16,18,-1,20,-1,22,24,-1,-1,-1,-1,-1,-1,-1,-1],"split_conditions":[1E0,2.4E2,4.8E2,-8.982318E-3,1.37E2,2.045E3,-4.430039E-2,-7.6598294E-2,1.67E2,2.791E3,3.358E3,1.51E2,-6.7767665E-2,1.125E3,-8.150571E-2,3.42E2,3.601E3,-1.6846074E-2,2.4852766E-2,-3.1832043E-2,4.2677972E-2,-5.5957783E-2,5.0648812E-2,-4.6557732E-2,7.4935923E-3],"split_indices":[9,8,8,0,7,5,0,0,7,6,5,7,0,6,0,8,5,0,0,0,0,0,0,0,0],"split_type":[0,0,0,0,0,0,0,0,0,0,0,0,0,0,0,0,0,0,0,0,0,0,0,0,0],"sum_hessian":[8.050039E1,1.0220782E1,7.027961E1,1.6722566E0,8.548526E0,6.825126E1,2.028349E0,4.1476383E0,4.4008875E0,5.028441E0,6.322282E1,2.4300716E0,1.970816E0,3.2174802E0,1.810961E0,1.5822755E1,4.7400063E1,1.1024117E0,1.32766E0,1.1809446E0,2.0365355E0,1.9236088E0,1.3899146E1,4.2336392E0,4.3166424E1],"tree_param":{"num_deleted":"0","num_feature":"11","num_nodes":"25","size_leaf_vector":"1"}},{"base_weights":[-3.5300896E-2,-6.433279E-1,5.8929417E-2,-9.005252E-3,-7.3101234E-1,-1.4144199E-2,2.8736466E-1,-7.9248086E-2,-1.8848054E-1,-3.07703E-1,1.0699923E-1,4.45359E-2,7.74586E-2,-5.6397386E-2,1.8643977E-2,1.7622593E-1,-8.1731594E-1,4.713776E-2,7.077395E-1,3.735541E-1,-6.6239923E-1,-4.2404182E-2,4.741723E-2,-3.9945133E-2,-1.0682562E-1,1.2364708E-2,-4.664336E-2,6.639353E-2,1.6322719E-2,-2.0848367E-2,6.866233E-2,-8.624431E-2,-1.7362363E-4],"categories":[],"categories_nodes":[],"categories_segments":[],"categories_sizes":[],"default_left":[0,0,0,0,0,0,0,0,0,0,0,0,0,0,0,0,0,0,0,0,0,0,0,0,0,0,0,0,0,0,0,0,0],"id":25,"left_children":[1,3,5,-1,7,9,11,-1,13,15,17,19,-1,-1,-1,21,23,25,27,29,31,-1,-1,-1,-1,-1,-1,-1,-1,-1,-1,-1,-1],"loss_changes":[4.664191E0,4.258561E-1,1.1863507E0,0E0,1.107348E0,1.9751633E0,2.8026996E0,0E0,1.080571E0,4.1421967E0,1.3835962E0,3.4423082E0,0E0,0E0,0E0,3.0022445E0,6.632328E-1,2.5882645E0,4.6015263E-2,3.3015049E0,1.2937975E0,0E0,0E0,0E0,0E0,0E0,0E0,0E0,0E0,0E0,0E0,0E0,0E0],"parents":[2147483647,0,0,1,1,2,2,4,4,5,5,6,6,8,8,9,9,10,10,11,11,15,15,16,16,17,17,18,18,19,19,20,20],"right_children":[2,4,6,-1,8,10,12,-1,14,16,18,20,-1,-1,-1,22,24,26,28,30,32,-1,-1,-1,-1,-1,-1,-1,-1,-1,-1,-1,-1],"split_conditions":[1E0,2.491E3,2E0,-9.005252E-3,1.53E2,1E0,6.4E3,-7.9248086E-2,1E0,4.554E3,2.79E2,1.65E2,7.74586E-2,-5.6397386E-2,1.8643977E-2,9.6E1,2.067E3,1.88E2,4.25E3,1.89E2,2.087E3,-4.2404182E-2,4.741723E-2,-3.9945133E-2,-1.0682562E-1,1.2364708E-2,-4.664336E-2,6.639353E-2,1.6322719E-2,-2.0848367E-2,6.866233E-2,-8.624431E-2,-1.7362363E-4],"split_indices":[9,5,2,0,7,10,5,0,2,5,7,7,0,0,0,7,6,7,6,6,6,0,0,0,0,0,0,0,0,0,0,0,0],"split_type":[0,0,0,0,0,0,0,0,0,0,0,0,0,0,0,0,0,0,0,0,0,0,0,0,0,0,0,0,0,0,0,0,0],"sum_hessian":[7.9745514E1,9.918511E0,6.9827E1,1.7300594E0,8.188453E0,5.3614475E1,1.6212526E1,4.979833E0,3.208619E0,1.5212077E1,3.8402397E1,1.2735774E1,3.4767523E0,1.1397374E0,2.0688818E0,8.138216E0,7.0738606E0,3.5903244E1,2.499155E0,9.012711E0,3.723064E0,2.9177167E0,5.220499E0,5.5999703E0,1.4738907E0,3.1319267E1,4.583976E0,1.4900889E0,1.0090661E0,4.1048117E0,4.907899E0,1.8963482E0,1.8267157E0],"tree_param":{"num_deleted":"0","num_feature":"11","num_nodes":"33","size_leaf_vector":"1"}},{"base_weights":[-3.4861114E-2,-6.214307E-1,5.4210294E-2,-6.634651E-3,-7.0950437E-1,-1.0612353E-1,1.5560773E-1,-7.371763E-2,-3.81726E-1,-6.4342993E-1,-1.3203149E-2,4.2324206E-1,2.119907E-2,1.0723906E-1,-6.568013E-2,-7.02421E-2,-1.44237755E-2,5.89687E-2,-6.1525997E-2,9.726936E-2,7.4712586E-1,-3.0387747E-1,2.0031518E-1,-1.3901636E-2,2.4759084E-2,1.5881505E-2,-3.3887655E-2,4.356514E-2,-3.0516986E-2,1.2911845E-2,6.545237E-2,-1.7474627E-3,-7.425986E-2,3.0038556E-2,-2.6836826E-2],"categories":[],"categories_nodes":[],"categories_segments":[],"categories_sizes":[],"default_left":[0,0,0,0,0,0,0,0,0,0,0,0,0,0,0,0,0,0,0,0,0,0,0,0,0,0,0,0,0,0,0,0,0,0,0],"id":26,"left_children":[1,3,5,-1,7,9,11,-1,13,15,17,19,21,23,-1,-1,-1,25,-1,27,29,31,33,-1,-1,-1,-1,-1,-1,-1,-1,-1,-1,-1,-1],"loss_changes":[4.2109685E0,4.4487E-1,1.1599405E0,0E0,2.7323294E-1,1.3815691E0,1.5554818E0,0E0,1.2135181E0,2.8542602E-1,1.3959674E0,1.4567988E0,1.8078798E0,2.4497879E-1,0E0,0E0,0E0,1.6685735E0,0E0,1.999984E0,1.64042E-1,1.9266554E0,1.9980319E0,0E0,0E0,0E0,0E0,0E0,0E0,0E0,0E0,0E0,0E0,0E0,0E0],"parents":[2147483647,0,0,1,1,2,2,4,4,5,5,6,6,8,8,9,9,10,10,11,11,12,12,13,13,17,17,19,19,20,20,21,21,22,22],"right_children":[2,4,6,-1,8,10,12,-1,14,16,18,20,22,24,-1,-1,-1,26,-1,28,30,32,34,-1,-1,-1,-1,-1,-1,-1,-1,-1,-1,-1,-1],"split_conditions":[1E0,2.4E2,1E0,-6.634651E-3,1.37E2,2.454E3,3.522E3,-7.371763E-2,1.67E2,1.89E2,4.8E2,2.661E3,4.625E3,1.51E2,-6.568013E-2,-7.02421E-2,-1.44237755E-2,1.76E2,-6.1525997E-2,1E0,8.1E1,2.358E3,2.55E2,-1.3901636E-2,2.4759084E-2,1.5881505E-2,-3.3887655E-2,4.356514E-2,-3.0516986E-2,1.2911845E-2,6.545237E-2,-1.7474627E-3,-7.425986E-2,3.0038556E-2,-2.6836826E-2],"split_indices":[9,8,1,0,7,5,5,0,7,6,8,5,5,7,0,0,0,7,0,2,7,6,7,0,0,0,0,0,0,0,0,0,0,0,0],"split_type":[0,0,0,0,0,0,0,0,0,0,0,0,0,0,0,0,0,0,0,0,0,0,0,0,0,0,0,0,0,0,0,0,0,0,0],"sum_hessian":[7.895319E1,9.620661E0,6.9332535E1,1.6252482E0,7.9954123E0,2.6842094E1,4.2490437E1,3.755539E0,4.2398734E0,3.0840771E0,2.3758018E1,1.3486741E1,2.9003696E1,2.3641603E0,1.8757132E0,1.4524888E0,1.6315882E0,2.2528908E1,1.2291104E0,7.3697653E0,6.1169753E0,1.0056211E1,1.8947485E1,1.0483598E0,1.3158004E0,1.7931898E1,4.597009E0,3.7388859E0,3.6308794E0,1.0154563E0,5.101519E0,7.6400943E0,2.416118E0,1.4504541E1,4.442943E0],"tree_param":{"num_deleted":"0","num_feature":"11","num_nodes":"35","size_leaf_vector":"1"}},{"base_weights":[-3.5817146E-2,-6.009817E-1,4.841468E-2,-5.9531205E-3,-6.9349927E-1,-2.12716E-1,1.0649124E-1,-7.680315E-2,-1.6663958E-1,4.1116786E-1,-5.8204347E-1,3.2342342E-1,-3.0955741E-2,-4.3002725E-2,2.9198889E-2,-1.0035344E-2,6.7909807E-1,-2.2708799E-1,-9.863527E-1,7.887362E-2,5.8195496E-1,-6.581873E-1,1.07882805E-1,6.309514E-2,1.8029822E-2,-3.8921583E-2,2.8235773E-2,-9.681184E-2,-1.9113535E-2,5.8936093E-2,-1.961233E-2,6.243239E-2,1.420942E-2,-7.5154506E-2,1.0629202E-2,1.35044465E-2,-5.8394987E-2],"categories":[],"categories_nodes":[],"categories_segments":[],"categories_sizes":[],"default_left":[0,0,0,0,0,0,0,0,0,0,0,0,0,0,0,0,0,0,0,0,0,0,0,0,0,0,0,0,0,0,0,0,0,0,0,0,0],"id":27,"left_children":[1,3,5,-1,7,9,11,-1,13,15,17,19,21,-1,-1,-1,23,25,27,29,31,33,35,-1,-1,-1,-1,-1,-1,-1,-1,-1,-1,-1,-1,-1,-1],"loss_changes":[3.7984095E0,4.5235562E-1,1.0817319E0,0E0,1.0587454E0,3.2437983E0,1.7332717E0,0E0,1.0096607E0,8.6655635E-1,1.0108705E0,1.3768489E0,3.231439E0,0E0,0E0,0E0,1.0245681E-2,1.0566921E0,3.3371758E-1,2.8921804E0,7.2655725E-1,1.6194656E0,1.6837673E0,0E0,0E0,0E0,0E0,0E0,0E0,0E0,0E0,0E0,0E0,0E0,0E0,0E0,0E0],"parents":[2147483647,0,0,1,1,2,2,4,4,5,5,6,6,8,8,9,9,10,10,11,11,12,12,16,16,17,17,18,18,19,19,20,20,21,21,22,22],"right_children":[2,4,6,-1,8,10,12,-1,14,16,18,20,22,-1,-1,-1,24,26,28,30,32,34,36,-1,-1,-1,-1,-1,-1,-1,-1,-1,-1,-1,-1,-1,-1],"split_conditions":[1E0,2.491E3,8.8E1,-5.9531205E-3,1.53E2,6.1E1,1.33E2,-7.680315E-2,2E0,2.383E3,3.522E3,1.15E2,1E0,-4.3002725E-2,2.9198889E-2,-1.0035344E-2,5.4E1,7.6E1,4.6E3,1E0,1.27E2,1.993E3,7.25E3,6.309514E-2,1.8029822E-2,-3.8921583E-2,2.8235773E-2,-9.681184E-2,-1.9113535E-2,5.8936093E-2,-1.961233E-2,6.243239E-2,1.420942E-2,-7.5154506E-2,1.0629202E-2,1.35044465E-2,-5.8394987E-2],"split_indices":[9,5,7,0,7,7,7,0,2,5,5,7,3,0,0,0,7,7,5,3,7,6,6,0,0,0,0,0,0,0,0,0,0,0,0,0,0],"split_type":[0,0,0,0,0,0,0,0,0,0,0,0,0,0,0,0,0,0,0,0,0,0,0,0,0,0,0,0,0,0,0,0,0,0,0,0,0],"sum_hessian":[7.817919E1,9.344718E0,6.883447E1,1.6661395E0,7.678579E0,1.2039293E1,5.6795177E1,4.553006E0,3.1255724E0,4.4347067E0,7.604586E0,2.1503378E1,3.52918E1,1.8345587E0,1.2910138E0,1.6539642E0,2.7807426E0,4.88104E0,2.723546E0,1.1721179E1,9.782199E0,5.7181625E0,2.9573637E1,1.6451306E0,1.135612E0,3.4839852E0,1.3970551E0,1.6195515E0,1.1039945E0,3.447874E0,8.273305E0,5.9378166E0,3.8443825E0,4.0800166E0,1.638146E0,2.8313328E1,1.2603086E0],"tree_param":{"num_deleted":"0","num_feature":"11","num_nodes":"37","size_leaf_vector":"1"}},{"base_weights":[-3.4937017E-2,-5.789416E-1,4.43941E-2,-4.28789E-3,-6.703179E-1,-2.5231468E-2,2.651893E-1,-7.1049854E-2,-3.498626E-1,7.208242E-2,-3.8386017E-1,2.9738303E-2,7.537773E-2,1.3213305E-1,-6.36796E-2,-6.494614E-2,3.6001465E-1,-9.846923E-3,-1.3076057E0,5.745806E-1,-3.559425E-1,1.9502972E-3,1.4873727E-2,-3.175919E-2,9.836301E-3,5.405523E-2,-2.5836674E-2,2.332067E-2,-6.724002E-2,-1.3788663E-1,-1.6820148E-2,6.570219E-2,-2.3478717E-2,-5.661635E-2,1.4979853E-2],"categories":[],"categories_nodes":[],"categories_segments":[],"categories_sizes":[],"default_left":[0,0,0,0,0,0,0,0,0,0,0,0,0,0,0,0,0,0,0,0,0,0,0,0,0,0,0,0,0,0,0,0,0,0,0],"id":28,"left_children":[1,3,5,-1,7,9,11,-1,13,15,17,19,-1,21,-1,23,25,27,29,31,33,-1,-1,-1,-1,-1,-1,-1,-1,-1,-1,-1,-1,-1,-1],"loss_changes":[3.4143326E0,4.4719863E-1,1.0744269E0,0E0,2.815907E-1,1.9023758E0,2.6401691E0,0E0,1.1983895E0,1.7236526E0,4.002858E0,3.0311975E0,0E0,1.4602017E-2,0E0,1.9233807E0,3.247045E0,2.568247E0,1.1632471E0,1.5169197E0,1.7554525E0,0E0,0E0,0E0,0E0,0E0,0E0,0E0,0E0,0E0,0E0,0E0,0E0,0E0,0E0],"parents":[2147483647,0,0,1,1,2,2,4,4,5,5,6,6,8,8,9,9,10,10,11,11,13,13,15,15,16,16,17,17,18,18,19,19,20,20],"right_children":[2,4,6,-1,8,10,12,-1,14,16,18,20,-1,22,-1,24,26,28,30,32,34,-1,-1,-1,-1,-1,-1,-1,-1,-1,-1,-1,-1,-1,-1],"split_conditions":[1E0,2.4E2,2E0,-4.28789E-3,1.37E2,2.541E3,6.4E3,-7.1049854E-2,1.67E2,7.54E2,1E0,1.27E2,7.537773E-2,1.717E3,-6.36796E-2,9.7E1,4.31E3,5.726E3,3.416E3,4.288E3,1.911E3,1.9502972E-3,1.4873727E-2,-3.175919E-2,9.836301E-3,5.405523E-2,-2.5836674E-2,2.332067E-2,-6.724002E-2,-1.3788663E-1,-1.6820148E-2,6.570219E-2,-2.3478717E-2,-5.661635E-2,1.4979853E-2],"split_indices":[9,8,2,0,7,6,5,0,7,6,2,7,0,6,0,7,5,5,6,5,6,0,0,0,0,0,0,0,0,0,0,0,0,0,0],"split_type":[0,0,0,0,0,0,0,0,0,0,0,0,0,0,0,0,0,0,0,0,0,0,0,0,0,0,0,0,0,0,0,0,0,0,0],"sum_hessian":[7.751962E1,9.06431E0,6.8455315E1,1.5780898E0,7.4862204E0,5.2717197E1,1.5738119E1,3.402313E0,4.0839076E0,4.2093994E1,1.0623199E1,1.2451719E1,3.2863996E0,2.3013663E0,1.7825413E0,2.9045513E1,1.3048483E1,8.280989E0,2.342211E0,4.957952E0,7.493767E0,1.2501597E0,1.0512066E0,1.0094477E1,1.8951036E1,8.931113E0,4.1173697E0,6.552756E0,1.7282331E0,1.2845868E0,1.0576241E0,3.9027274E0,1.0552248E0,4.364511E0,3.1292558E0],"tree_param":{"num_deleted":"0","num_feature":"11","num_nodes":"35","size_leaf_vector":"1"}},{"base_weights":[-3.5208475E-2,-5.5912256E-1,3.9885078E-2,-3.357516E-3,-6.553587E-1,-1.4447069E-1,1.1772847E-1,-7.459529E-2,-1.3786986E-1,-2.1923607E-2,-6.870174E-2,2.9554734E-1,-8.584325E-2,-5.225916E-2,2.0304622E-2,-5.8626026E-1,1.6851892E-1,5.17686E-1,-5.8977634E-2,-2.1837032E-1,6.8496823E-1,-6.744553E-3,-6.308502E-2,4.6756208E-2,-4.719848E-3,1.453645E-2,6.0994346E-2,2.7819058E-2,-3.52326E-2,-4.315942E-2,1.1518058E-2,1.3394264E-2,6.648488E-2],"categories":[],"categories_nodes":[],"categories_segments":[],"categories_sizes":[],"default_left":[0,0,0,0,0,0,0,0,0,0,0,0,0,0,0,0,0,0,0,0,0,0,0,0,0,0,0,0,0,0,0,0,0],"id":29,"left_children":[1,3,5,-1,7,9,11,-1,13,15,-1,17,19,-1,-1,21,23,25,27,29,31,-1,-1,-1,-1,-1,-1,-1,-1,-1,-1,-1,-1],"loss_changes":[3.0836031E0,4.6128893E-1,1.0070778E0,0E0,1.0489361E0,1.8134003E0,1.8012488E0,0E0,9.807396E-1,2.1292217E0,0E0,2.1104841E0,2.5653064E0,0E0,0E0,4.402448E-1,1.4447075E0,1.2050266E0,1.870715E0,2.513845E0,1.4144874E-1,0E0,0E0,0E0,0E0,0E0,0E0,0E0,0E0,0E0,0E0,0E0,0E0],"parents":[2147483647,0,0,1,1,2,2,4,4,5,5,6,6,8,8,9,9,11,11,12,12,15,15,16,16,17,17,18,18,19,19,20,20],"right_children":[2,4,6,-1,8,10,12,-1,14,16,-1,18,20,-1,-1,22,24,26,28,30,32,-1,-1,-1,-1,-1,-1,-1,-1,-1,-1,-1,-1],"split_conditions":[1E0,2.491E3,1E0,-3.357516E-3,1.53E2,9.56E3,2E0,-7.459529E-2,1E0,1.07E2,-6.870174E-2,1.51E2,9.167E3,-5.225916E-2,2.0304622E-2,2.679E3,4.006E3,1E0,1E0,1.89E2,1.84E2,-6.744553E-3,-6.308502E-2,4.6756208E-2,-4.719848E-3,1.453645E-2,6.0994346E-2,2.7819058E-2,-3.52326E-2,-4.315942E-2,1.1518058E-2,1.3394264E-2,6.648488E-2],"split_indices":[9,5,10,0,7,5,10,0,2,7,0,7,5,0,0,5,5,1,2,6,7,0,0,0,0,0,0,0,0,0,0,0,0],"split_type":[0,0,0,0,0,0,0,0,0,0,0,0,0,0,0,0,0,0,0,0,0,0,0,0,0,0,0,0,0,0,0,0,0],"sum_hessian":[7.681145E1,8.821281E0,6.7990166E1,1.6093044E0,7.2119775E0,1.9931253E1,4.805891E1,4.174786E0,3.0371912E0,1.7892302E1,2.0389514E0,2.541085E1,2.264806E1,1.0231419E0,2.0140493E0,3.9900906E0,1.3902211E1,1.5339306E1,1.0071545E1,1.993696E1,2.7110984E0,1.5531497E0,2.436941E0,4.360946E0,9.541265E0,7.1990204E0,8.140286E0,4.9169583E0,5.154587E0,1.0310545E1,9.626416E0,1.0692556E0,1.641843E0],"tree_param":{"num_deleted":"0","num_feature":"11","num_nodes":"33","size_leaf_vector":"1"}},{"base_weights":[-3.3613116E-2,-5.400842E-1,3.7523806E-2,-2.4197733E-3,-6.3392997E-1,-2.993147E-2,2.527445E-1,-6.854915E-2,-3.218892E-1,6.742626E-2,-3.8722277E-1,2.4165874E-2,7.3930636E-2,1.5250398E-1,-6.1912518E-2,-2.4571761E-1,1.6941606E-1,-3.4290753E-2,-1.220166E0,3.286529E-1,-5.8648574E-1,3.3278358E-3,1.5901491E-2,-8.03671E-2,8.1337865E-5,2.2299087E-2,-1.8980086E-2,2.03435E-2,-6.367183E-2,-1.2844047E-1,-1.5586812E-2,-2.0134639E-2,6.4724386E-2,-7.6196454E-2,8.493292E-4],"categories":[],"categories_nodes":[],"categories_segments":[],"categories_sizes":[],"default_left":[0,0,0,0,0,0,0,0,0,0,0,0,0,0,0,0,0,0,0,0,0,0,0,0,0,0,0,0,0,0,0,0,0,0,0],"id":30,"left_children":[1,3,5,-1,7,9,11,-1,13,15,17,19,-1,21,-1,23,25,27,29,31,33,-1,-1,-1,-1,-1,-1,-1,-1,-1,-1,-1,-1,-1,-1],"loss_changes":[2.8023345E0,4.3894887E-1,1.004108E0,0E0,2.8323126E-1,1.8751698E0,2.507728E0,0E0,1.1795999E0,1.4029809E0,3.348011E0,2.6704931E0,0E0,8.412071E-3,0E0,2.0382476E0,1.5219144E0,2.208677E0,1.0316868E0,2.8613434E0,1.0574694E0,0E0,0E0,0E0,0E0,0E0,0E0,0E0,0E0,0E0,0E0,0E0,0E0,0E0,0E0],"parents":[2147483647,0,0,1,1,2,2,4,4,5,5,6,6,8,8,9,9,10,10,11,11,13,13,15,15,16,16,17,17,18,18,19,19,20,20],"right_children":[2,4,6,-1,8,10,12,-1,14,16,18,20,-1,22,-1,24,26,28,30,32,34,-1,-1,-1,-1,-1,-1,-1,-1,-1,-1,-1,-1,-1,-1],"split_conditions":[1E0,2.4E2,2E0,-2.4197733E-3,1.37E2,2.541E3,6.4E3,-6.854915E-2,1.67E2,8.8E1,1E0,1.65E2,7.3930636E-2,1.717E3,-6.1912518E-2,1E0,1.9E2,5.726E3,3.416E3,1.89E2,2.087E3,3.3278358E-3,1.5901491E-2,-8.03671E-2,8.1337865E-5,2.2299087E-2,-1.8980086E-2,2.03435E-2,-6.367183E-2,-1.2844047E-1,-1.5586812E-2,-2.0134639E-2,6.4724386E-2,-7.6196454E-2,8.493292E-4],"split_indices":[9,8,2,0,7,6,5,0,7,7,2,7,0,6,0,3,7,5,6,6,6,0,0,0,0,0,0,0,0,0,0,0,0,0,0],"split_type":[0,0,0,0,0,0,0,0,0,0,0,0,0,0,0,0,0,0,0,0,0,0,0,0,0,0,0,0,0,0,0,0,0,0,0],"sum_hessian":[7.621792E1,8.574952E0,6.764297E1,1.5385828E0,7.036369E0,5.2156734E1,1.5486233E1,3.0857708E0,3.9505982E0,4.162554E1,1.0531192E1,1.232582E1,3.1604125E0,2.2508943E0,1.6997039E0,9.880319E0,3.1745222E1,8.128274E0,2.4029179E0,8.532894E0,3.7929263E0,1.2215983E0,1.0292959E0,1.6705948E0,8.209723E0,2.5267303E1,6.477919E0,6.3777547E0,1.750519E0,1.3352588E0,1.0676589E0,4.08012E0,4.452774E0,1.9826258E0,1.8103006E0],"tree_param":{"num_deleted":"0","num_feature":"11","num_nodes":"35","size_leaf_vector":"1"}},{"base_weights":[-3.5416592E-2,-5.215131E-1,3.1857077E-2,-1.0043799E-3,-6.215597E-1,5.604325E-2,-4.121809E-2,-7.253503E-2,-1.1696258E-1,-3.612416E-1,9.423974E-2,-3.8558155E-2,2.9424574E-2,2.2530448E-1,-7.052133E-2,3.7779322E-1,-4.1186038E-4,3.416605E-2,-8.826002E-3,-5.7090446E-2,4.6574768E-2,-4.7107387E-2,5.6196605E-3],"categories":[],"categories_nodes":[],"categories_segments":[],"categories_sizes":[],"default_left":[0,0,0,0,0,0,0,0,0,0,0,0,0,0,0,0,0,0,0,0,0,0,0],"id":31,"left_children":[1,3,5,-1,7,9,-1,-1,11,13,15,-1,-1,17,-1,19,21,-1,-1,-1,-1,-1,-1],"loss_changes":[2.5175817E0,4.6855664E-1,9.302753E-1,0E0,1.0158412E0,1.0882567E0,0E0,0E0,8.785964E-1,1.9543729E0,1.6477292E0,0E0,0E0,2.8420174E-1,0E0,3.8429003E0,1.9964623E0,0E0,0E0,0E0,0E0,0E0,0E0],"parents":[2147483647,0,0,1,1,2,2,4,4,5,5,8,8,9,9,10,10,13,13,15,15,16,16],"right_children":[2,4,6,-1,8,10,-1,-1,12,14,16,-1,-1,18,-1,20,22,-1,-1,-1,-1,-1,-1],"split_conditions":[1E0,2.491E3,4.8E2,-1.0043799E-3,1.53E2,2.045E3,-4.121809E-2,-7.253503E-2,2E0,1.08E2,3.358E3,-3.8558155E-2,2.9424574E-2,1.88E3,-7.052133E-2,3.42E2,3.601E3,3.416605E-2,-8.826002E-3,-5.7090446E-2,4.6574768E-2,-4.7107387E-2,5.6196605E-3],"split_indices":[9,5,8,0,7,5,0,0,2,7,5,0,0,5,0,8,5,0,0,0,0,0,0],"split_type":[0,0,0,0,0,0,0,0,0,0,0,0,0,0,0,0,0,0,0,0,0,0,0],"sum_hessian":[7.547869E1,8.355147E0,6.712355E1,1.5574676E0,6.79768E0,6.514126E1,1.9822898E0,3.8342435E0,2.9634364E0,4.7534823E0,6.0387775E1,1.693815E0,1.2696213E0,2.500936E0,2.252546E0,1.4364318E1,4.6023457E1,1.3917769E0,1.1091592E0,1.8727236E0,1.2491594E1,4.1477356E0,4.187572E1],"tree_param":{"num_deleted":"0","num_feature":"11","num_nodes":"23","size_leaf_vector":"1"}},{"base_weights":[-3.5659727E-2,-5.019523E-1,2.7609497E-2,-9.557863E-4,-6.011747E-1,-1.522602E-1,1.0382819E-1,-7.108808E-2,-1.10798776E-1,-3.1613922E-1,3.0150858E-1,2.7191144E-1,-8.5557126E-2,-3.7099715E-2,2.7995236E-2,1.3964964E-1,-7.58829E-1,-4.0720925E-2,5.956858E-2,4.816315E-1,-4.9896646E-2,-2.1107715E-1,6.612489E-1,-3.614182E-2,4.208924E-2,-1.068151E-1,-3.740224E-2,1.2588794E-2,5.8143012E-2,2.6137033E-2,-3.160484E-2,-4.0437903E-2,1.0536459E-2,1.1684079E-2,6.496837E-2],"categories":[],"categories_nodes":[],"categories_segments":[],"categories_sizes":[],"default_left":[0,0,0,0,0,0,0,0,0,0,0,0,0,0,0,0,0,0,0,0,0,0,0,0,0,0,0,0,0,0,0,0,0,0,0],"id":32,"left_children":[1,3,5,-1,7,9,11,-1,13,15,17,19,21,-1,-1,23,25,-1,-1,27,29,31,33,-1,-1,-1,-1,-1,-1,-1,-1,-1,-1,-1,-1],"loss_changes":[2.2538247E0,4.3639088E-1,9.453443E-1,0E0,9.6805763E-1,1.6261069E0,1.5581417E0,0E0,8.0277437E-1,3.2559712E0,2.5244074E0,1.7642293E0,2.3361306E0,0E0,0E0,2.1888423E0,7.31513E-1,0E0,0E0,1.1341305E0,1.5693492E0,2.1674979E0,1.6225171E-1,0E0,0E0,0E0,0E0,0E0,0E0,0E0,0E0,0E0,0E0,0E0,0E0],"parents":[2147483647,0,0,1,1,2,2,4,4,5,5,6,6,8,8,9,9,10,10,11,11,12,12,15,15,16,16,19,19,20,20,21,21,22,22],"right_children":[2,4,6,-1,8,10,12,-1,14,16,18,20,22,-1,-1,24,26,-1,-1,28,30,32,34,-1,-1,-1,-1,-1,-1,-1,-1,-1,-1,-1,-1],"split_conditions":[1E0,2.491E3,1E0,-9.557863E-4,1.53E2,2E0,2E0,-7.108808E-2,2E0,4.554E3,1E0,1.51E2,9.167E3,-3.7099715E-2,2.7995236E-2,9.6E1,4.923E3,-4.0720925E-2,5.956858E-2,1E0,1E0,1.89E2,1.84E2,-3.614182E-2,4.208924E-2,-1.068151E-1,-3.740224E-2,1.2588794E-2,5.8143012E-2,2.6137033E-2,-3.160484E-2,-4.0437903E-2,1.0536459E-2,1.1684079E-2,6.496837E-2],"split_indices":[9,5,10,0,7,2,10,0,2,5,3,7,5,0,0,7,5,0,0,1,2,6,7,0,0,0,0,0,0,0,0,0,0,0,0],"split_type":[0,0,0,0,0,0,0,0,0,0,0,0,0,0,0,0,0,0,0,0,0,0,0,0,0,0,0,0,0,0,0,0,0,0,0],"sum_hessian":[7.492598E1,8.123368E0,6.680261E1,1.5565982E0,6.5667706E0,1.9585295E1,4.721732E1,3.6281216E0,2.938649E0,1.4611603E1,4.973691E0,2.4784672E1,2.243265E1,1.6602745E0,1.2783744E0,7.53657E0,7.0750327E0,1.7054012E0,3.2682898E0,1.470493E1,1.0079741E1,1.9818928E1,2.6137218E0,2.9117029E0,4.6248674E0,1.1722052E0,5.9028277E0,7.037804E0,7.667126E0,4.84586E0,5.2338805E0,1.040664E1,9.412287E0,1.0377566E0,1.5759654E0],"tree_param":{"num_deleted":"0","num_feature":"11","num_nodes":"35","size_leaf_vector":"1"}},{"base_weights":[-3.40149E-2,-4.8316947E-1,2.5806598E-2,1.2029961E-3,-5.830762E-1,4.730964E-2,-4.601402E-2,-1.0646714E-2,-7.032801E-1,1.1077822E-2,5.6690015E-2,-6.72144E-2,-2.2798354E-2,5.4335617E-2,-6.596894E-2,6.06073E-4,4.268386E-2],"categories":[],"categories_nodes":[],"categories_segments":[],"categories_sizes":[],"default_left":[0,0,0,0,0,0,0,0,0,0,0,0,0,0,0,0,0],"id":33,"left_children":[1,3,5,-1,7,9,-1,-1,11,13,-1,-1,-1,15,-1,-1,-1],"loss_changes":[2.0363255E0,4.5193863E-1,8.984655E-1,0E0,3.0892348E-1,1.5738962E0,0E0,0E0,8.350682E-2,2.3439972E0,0E0,0E0,0E0,1.3720074E0,0E0,0E0,0E0],"parents":[2147483647,0,0,1,1,2,2,4,4,5,5,8,8,9,9,13,13],"right_children":[2,4,6,-1,8,10,-1,-1,12,14,-1,-1,-1,16,-1,-1,-1],"split_conditions":[1E0,2.4E2,7.25E3,1.2029961E-3,1E0,5.5E3,-4.601402E-2,-1.0646714E-2,1.53E2,4.333E3,5.6690015E-2,-6.72144E-2,-2.2798354E-2,3.053E3,-6.596894E-2,6.06073E-4,4.268386E-2],"split_indices":[9,8,6,0,1,6,0,0,7,6,0,0,0,6,0,0,0],"split_type":[0,0,0,0,0,0,0,0,0,0,0,0,0,0,0,0,0],"sum_hessian":[7.432283E1,7.903623E0,6.6419205E1,1.462087E0,6.441536E0,6.501428E1,1.4049222E0,1.8021617E0,4.6393743E0,6.2601265E1,2.4130151E0,2.7355406E0,1.9038336E0,6.0409283E1,2.1919842E0,5.5964314E1,4.4449706E0],"tree_param":{"num_deleted":"0","num_feature":"11","num_nodes":"17","size_leaf_vector":"1"}},{"base_weights":[-3.288242E-2,-4.6481228E-1,2.3690773E-2,8.399028E-4,-5.6629E-1,-3.996063E-2,2.3061633E-1,-6.886154E-2,-9.43991E-2,5.8353283E-2,-4.008015E-1,1.0640427E-2,7.160513E-2,-3.515948E-2,2.7425215E-2,-1.9146754E-1,1.7398596E-1,-1.0845593E0,-3.4355294E-2,5.1943356E-1,-3.22687E-1,2.130578E-2,-3.0564709E-2,4.038396E-2,-4.4802553E-3,-3.700585E-2,-1.1097688E-1,1.8578755E-2,-4.4654578E-2,6.1729573E-2,-2.2669055E-2,-4.705749E-2,1.966505E-2],"categories":[],"categories_nodes":[],"categories_segments":[],"categories_sizes":[],"default_left":[0,0,0,0,0,0,0,0,0,0,0,0,0,0,0,0,0,0,0,0,0,0,0,0,0,0,0,0,0,0,0,0,0],"id":34,"left_children":[1,3,5,-1,7,9,11,-1,13,15,17,19,-1,-1,-1,21,23,25,27,29,31,-1,-1,-1,-1,-1,-1,-1,-1,-1,-1,-1,-1],"loss_changes":[1.8447478E0,4.2746866E-1,8.9568657E-1,0E0,9.2203426E-1,1.879606E0,2.3262339E0,0E0,7.3871046E-1,1.2463858E0,2.8017402E0,2.3753753E0,0E0,0E0,0E0,1.3025882E0,2.252194E0,9.639597E-2,1.3040235E0,1.3394152E0,1.424984E0,0E0,0E0,0E0,0E0,0E0,0E0,0E0,0E0,0E0,0E0,0E0,0E0],"parents":[2147483647,0,0,1,1,2,2,4,4,5,5,6,6,8,8,9,9,10,10,11,11,15,15,16,16,17,17,18,18,19,19,20,20],"right_children":[2,4,6,-1,8,10,12,-1,14,16,18,20,-1,-1,-1,22,24,26,28,30,32,-1,-1,-1,-1,-1,-1,-1,-1,-1,-1,-1,-1],"split_conditions":[1E0,2.491E3,2E0,8.399028E-4,1.53E2,2.541E3,6.4E3,-6.886154E-2,2E0,1E2,3.053E3,1.27E2,7.160513E-2,-3.515948E-2,2.7425215E-2,6.1E1,4.583E3,1E0,5.726E3,4.288E3,2.087E3,2.130578E-2,-3.0564709E-2,4.038396E-2,-4.4802553E-3,-3.700585E-2,-1.1097688E-1,1.8578755E-2,-4.4654578E-2,6.1729573E-2,-2.2669055E-2,-4.705749E-2,1.966505E-2],"split_indices":[9,5,2,0,7,6,5,0,2,7,6,7,0,0,0,7,5,2,5,5,6,0,0,0,0,0,0,0,0,0,0,0,0],"split_type":[0,0,0,0,0,0,0,0,0,0,0,0,0,0,0,0,0,0,0,0,0,0,0,0,0,0,0,0,0,0,0,0,0],"sum_hessian":[7.4043465E1,7.739227E0,6.630424E1,1.5193399E0,6.219887E0,5.132368E1,1.4980554E1,3.3224545E0,2.8974323E0,4.0993084E1,1.03306E1,1.2017864E1,2.9626894E0,1.6163946E0,1.2810377E0,1.276306E1,2.8230022E1,2.9208572E0,7.4097424E0,4.5359035E0,7.4819603E0,3.634895E0,9.128165E0,1.1087301E1,1.7142721E1,1.7836466E0,1.1372105E0,5.2795134E0,2.1302292E0,3.4811804E0,1.054723E0,5.076278E0,2.4056823E0],"tree_param":{"num_deleted":"0","num_feature":"11","num_nodes":"33","size_leaf_vector":"1"}},{"base_weights":[-3.2139607E-2,-4.4727552E-1,2.1277552E-2,2.7555274E-3,-5.488726E-1,-3.987516E-1,5.050696E-2,-6.340392E-2,-2.463896E-1,2.8231984E-3,-5.867306E-2,-2.0767103E-1,1.2438764E-1,2.0311981E-2,-5.9503894E-2,1.2337718E-1,-6.071348E-1,2.494742E-2,4.935281E-1,-5.4223616E-2,4.511288E-2,-6.461629E-2,2.1138305E-2,9.916325E-3,-2.956171E-2,5.6966394E-2,-3.3100569E-3],"categories":[],"categories_nodes":[],"categories_segments":[],"categories_sizes":[],"default_left":[0,0,0,0,0,0,0,0,0,0,0,0,0,0,0,0,0,0,0,0,0,0,0,0,0,0,0],"id":35,"left_children":[1,3,5,-1,7,9,11,-1,13,-1,-1,15,17,-1,-1,19,21,23,25,-1,-1,-1,-1,-1,-1,-1,-1],"loss_changes":[1.6618007E0,4.3685758E-1,8.4234357E-1,0E0,3.2889962E-1,6.7512083E-1,1.2370609E0,0E0,1.3395331E0,0E0,0E0,1.9928054E0,1.8229625E0,0E0,0E0,3.4746113E0,1.3915751E0,1.6252047E0,1.2636201E0,0E0,0E0,0E0,0E0,0E0,0E0,0E0,0E0],"parents":[2147483647,0,0,1,1,2,2,4,4,5,5,6,6,8,8,11,11,12,12,15,15,16,16,17,17,18,18],"right_children":[2,4,6,-1,8,10,12,-1,14,-1,-1,16,18,-1,-1,20,22,24,26,-1,-1,-1,-1,-1,-1,-1,-1],"split_conditions":[1E0,2.4E2,1.926E3,2.7555274E-3,1.37E2,2.791E3,1E0,-6.340392E-2,1.67E2,2.8231984E-3,-5.867306E-2,1.33E2,2E0,2.0311981E-2,-5.9503894E-2,9.6E1,6.25E3,7.933E3,2E0,-5.4223616E-2,4.511288E-2,-6.461629E-2,2.1138305E-2,9.916325E-3,-2.956171E-2,5.6966394E-2,-3.3100569E-3],"split_indices":[9,8,5,0,7,6,3,0,7,0,0,7,2,0,0,7,5,5,10,0,0,0,0,0,0,0,0],"split_type":[0,0,0,0,0,0,0,0,0,0,0,0,0,0,0,0,0,0,0,0,0,0,0,0,0,0,0],"sum_hessian":[7.350982E1,7.539866E0,6.5969955E1,1.4283512E0,6.1115146E0,3.4695847E0,6.2500366E1,2.4874845E0,3.62403E0,1.8999643E0,1.5696204E0,1.3502973E1,4.8997395E1,2.050855E0,1.5731752E0,7.761728E0,5.741245E0,3.94404E1,9.556996E0,2.5626369E0,5.199091E0,4.726391E0,1.0148537E0,3.2075603E1,7.3647976E0,6.5496855E0,3.0073106E0],"tree_param":{"num_deleted":"0","num_feature":"11","num_nodes":"27","size_leaf_vector":"1"}},{"base_weights":[-3.1969227E-2,-4.32368E-1,1.878403E-2,2.7354863E-3,-5.372291E-1,-1.539664E-1,9.1871746E-2,-6.709918E-2,-7.618318E-2,-3.753496E-2,-6.451564E-2,-5.5226795E-2,3.204693E-1,-3.3192974E-2,2.708724E-2,-3.2655472E-1,2.6790833E-1,1.8107803E-1,-5.633431E-1,6.81514E-1,1.6356508E-1,-4.290084E-2,2.044706E-2,5.3028032E-2,-2.3830637E-2,-5.059053E-4,5.2891344E-2,-1.0134998E-1,-2.47099E-2,-3.0990926E-4,7.7279255E-2,-3.412019E-2,2.8473096E-2],"categories":[],"categories_nodes":[],"categories_segments":[],"categories_sizes":[],"default_left":[0,0,0,0,0,0,0,0,0,0,0,0,0,0,0,0,0,0,0,0,0,0,0,0,0,0,0,0,0,0,0,0,0],"id":36,"left_children":[1,3,5,-1,7,9,11,-1,13,15,-1,17,19,-1,-1,21,23,25,27,29,31,-1,-1,-1,-1,-1,-1,-1,-1,-1,-1,-1,-1],"loss_changes":[1.5129632E0,4.279734E-1,8.560339E-1,0E0,8.9467156E-1,1.5041146E0,1.6143403E0,0E0,6.780812E-1,1.6931005E0,0E0,3.6733806E0,9.500166E-1,0E0,0E0,1.3329302E0,2.2961488E0,1.8987491E0,1.3425767E0,1.0489221E0,1.7836045E0,0E0,0E0,0E0,0E0,0E0,0E0,0E0,0E0,0E0,0E0,0E0,0E0],"parents":[2147483647,0,0,1,1,2,2,4,4,5,5,6,6,8,8,9,9,11,11,12,12,15,15,16,16,17,17,18,18,19,19,20,20],"right_children":[2,4,6,-1,8,10,12,-1,14,16,-1,18,20,-1,-1,22,24,26,28,30,32,-1,-1,-1,-1,-1,-1,-1,-1,-1,-1,-1,-1],"split_conditions":[1E0,2.491E3,1E0,2.7354863E-3,1.53E2,9.56E3,4.75E3,-6.709918E-2,2E0,1.34E2,-6.451564E-2,1.38E2,5.726E3,-3.3192974E-2,2.708724E-2,1.516E3,2.067E3,1.14E2,1.89E2,1.29E2,6.065E3,-4.290084E-2,2.044706E-2,5.3028032E-2,-2.3830637E-2,-5.059053E-4,5.2891344E-2,-1.0134998E-1,-2.47099E-2,-3.0990926E-4,7.7279255E-2,-3.412019E-2,2.8473096E-2],"split_indices":[9,5,10,0,7,5,5,0,2,7,0,7,5,0,0,6,6,7,6,7,5,0,0,0,0,0,0,0,0,0,0,0,0],"split_type":[0,0,0,0,0,0,0,0,0,0,0,0,0,0,0,0,0,0,0,0,0,0,0,0,0,0,0,0,0,0,0,0,0],"sum_hessian":[7.3051544E1,7.3722124E0,6.567933E1,1.4765356E0,5.8956766E0,1.9197483E1,4.6481846E1,3.06926E0,2.8264167E0,1.7187918E1,2.0095656E0,2.8743996E1,1.773785E1,1.5556477E0,1.2707691E0,8.795876E0,8.392042E0,2.0058983E1,8.685012E0,4.360533E0,1.3377317E1,6.524401E0,2.2714741E0,4.841182E0,3.5508602E0,1.5136856E1,4.922127E0,1.2501699E0,7.4348416E0,1.5683353E0,2.792198E0,2.9894001E0,1.03879175E1],"tree_param":{"num_deleted":"0","num_feature":"11","num_nodes":"33","size_leaf_vector":"1"}},{"base_weights":[-3.119003E-2,-4.1588792E-1,1.6761957E-2,4.131667E-3,-5.19664E-1,4.0023103E-2,-3.9744224E-2,-5.492895E-3,-6.4793664E-1,-3.2643098E-1,7.820864E-2,-6.307279E-2,-2.0302098E-2,1.9622533E-1,-8.7375754E-1,3.729845E-1,-1.3011138E-2,-2.8081397E-2,4.1699152E-2,-1.9030679E-2,-8.99978E-2,-4.116711E-2,4.252681E-2,-4.2919092E-2,4.161843E-3],"categories":[],"categories_nodes":[],"categories_segments":[],"categories_sizes":[],"default_left":[0,0,0,0,0,0,0,0,0,0,0,0,0,0,0,0,0,0,0,0,0,0,0,0,0],"id":37,"left_children":[1,3,5,-1,7,9,-1,-1,11,13,15,-1,-1,17,19,21,23,-1,-1,-1,-1,-1,-1,-1,-1],"loss_changes":[1.3639324E0,4.2428625E-1,8.127259E-1,0E0,3.485564E-1,9.269456E-1,0E0,0E0,8.623743E-2,1.965745E0,1.5952408E0,0E0,0E0,8.988738E-1,2.511077E-1,2.2458982E0,1.5985054E0,0E0,0E0,0E0,0E0,0E0,0E0,0E0,0E0],"parents":[2147483647,0,0,1,1,2,2,4,4,5,5,8,8,9,9,10,10,13,13,14,14,15,15,16,16],"right_children":[2,4,6,-1,8,10,-1,-1,12,14,16,-1,-1,18,20,22,24,-1,-1,-1,-1,-1,-1,-1,-1],"split_conditions":[1E0,2.4E2,4.8E2,4.131667E-3,1E0,2.132E3,-3.9744224E-2,-5.492895E-3,1.53E2,2.791E3,3.358E3,-6.307279E-2,-2.0302098E-2,1.125E3,1.8E3,3.42E2,3.601E3,-2.8081397E-2,4.1699152E-2,-1.9030679E-2,-8.99978E-2,-4.116711E-2,4.252681E-2,-4.2919092E-2,4.161843E-3],"split_indices":[9,8,8,0,1,5,0,0,7,6,5,0,0,6,5,8,5,0,0,0,0,0,0,0,0],"split_type":[0,0,0,0,0,0,0,0,0,0,0,0,0,0,0,0,0,0,0,0,0,0,0,0,0],"sum_hessian":[7.255988E1,7.1916227E0,6.536826E1,1.3975757E0,5.7940474E0,6.341791E1,1.9503512E0,1.6229783E0,4.1710687E0,5.27235E0,5.814556E1,2.3377142E0,1.8333546E0,3.0250938E0,2.2472563E0,1.3011186E1,4.5134377E1,1.097377E0,1.9277167E0,1.1877531E0,1.0595032E0,1.6322277E0,1.1378958E1,4.1865315E0,4.0947845E1],"tree_param":{"num_deleted":"0","num_feature":"11","num_nodes":"25","size_leaf_vector":"1"}},{"base_weights":[-3.2270923E-2,-3.9983982E-1,1.3048419E-2,4.127842E-3,-5.064145E-1,3.3708975E-2,-4.4200186E-2,-6.505726E-2,-6.382634E-2,-1.7745588E-3,5.495436E-2,2.472034E-2,-3.4288976E-2,3.8623232E-2,-6.0576994E-2,-4.0823387E-4,3.9748754E-2],"categories":[],"categories_nodes":[],"categories_segments":[],"categories_sizes":[],"default_left":[0,0,0,0,0,0,0,0,0,0,0,0,0,0,0,0,0],"id":38,"left_children":[1,3,5,-1,7,9,-1,-1,11,13,-1,-1,-1,15,-1,-1,-1],"loss_changes":[1.2236656E0,4.1391766E-1,7.907994E-1,0E0,8.4607935E-1,1.5008328E0,0E0,0E0,6.4825255E-1,1.9324204E0,0E0,0E0,0E0,1.2077187E0,0E0,0E0,0E0],"parents":[2147483647,0,0,1,1,2,2,4,4,5,5,8,8,9,9,13,13],"right_children":[2,4,6,-1,8,10,-1,-1,12,14,-1,-1,-1,16,-1,-1,-1],"split_conditions":[1E0,2.491E3,7.25E3,4.127842E-3,1.53E2,5.5E3,-4.4200186E-2,-6.505726E-2,1.447E3,4.333E3,5.495436E-2,2.472034E-2,-3.4288976E-2,3.053E3,-6.0576994E-2,-4.0823387E-4,3.9748754E-2],"split_indices":[9,5,6,0,7,6,0,0,6,6,0,0,0,6,0,0,0],"split_type":[0,0,0,0,0,0,0,0,0,0,0,0,0,0,0,0,0],"sum_hessian":[7.214503E1,7.06013E0,6.50849E1,1.4469346E0,5.6131954E0,6.3698284E1,1.3866131E0,2.8205707E0,2.7926247E0,6.1362312E1,2.335973E0,1.4567078E0,1.3359168E0,5.914818E1,2.2141345E0,5.4898476E1,4.2496996E0],"tree_param":{"num_deleted":"0","num_feature":"11","num_nodes":"17","size_leaf_vector":"1"}},{"base_weights":[-3.0902896E-2,-3.8439816E-1,1.1935923E-2,-1.3788438E-1,-5.2089334E-2,-1.1869607E-1,9.857323E-2,-5.2680194E-1,3.313992E-1,-5.912162E-1,-3.575637E-2,5.9468728E-2,5.7201184E-2,-9.116409E-3,-5.308477E-2,-1.0606534E-2,5.0158538E-2,-1.5813647E-2,-6.6015035E-2,5.126563E-2,-9.753194E-2,-6.0881197E-2,1.17308624E-1,-4.858066E-2,1.4206881E-3,3.356639E-2,-1.4655726E-3],"categories":[],"categories_nodes":[],"categories_segments":[],"categories_sizes":[],"default_left":[0,0,0,0,0,0,0,0,0,0,0,0,0,0,0,0,0,0,0,0,0,0,0,0,0,0,0],"id":39,"left_children":[1,3,5,7,-1,9,11,13,15,17,19,-1,21,-1,-1,-1,-1,-1,-1,-1,23,-1,25,-1,-1,-1,-1],"loss_changes":[1.1086423E0,4.3033242E-1,7.58623E-1,1.1564261E0,0E0,1.0280015E0,1.0305622E0,1.1227387E-1,5.0165856E-1,1.99018E-1,1.058802E0,0E0,2.0016367E0,0E0,0E0,0E0,0E0,0E0,0E0,0E0,1.3454218E0,0E0,1.528236E0,0E0,0E0,0E0,0E0],"parents":[2147483647,0,0,1,1,2,2,3,3,5,5,6,6,7,7,8,8,9,9,10,10,12,12,20,20,22,22],"right_children":[2,4,6,8,-1,10,12,14,16,18,20,-1,22,-1,-1,-1,-1,-1,-1,-1,24,-1,26,-1,-1,-1,-1],"split_conditions":[1E0,2E0,1E0,1E0,-5.2089334E-2,2.454E3,5.4E1,1.26E2,4.758E3,7.5E1,6.1E1,5.9468728E-2,7.1E1,-9.116409E-3,-5.308477E-2,-1.0606534E-2,5.0158538E-2,-1.5813647E-2,-6.6015035E-2,5.126563E-2,8.4E1,-6.0881197E-2,1.27E2,-4.858066E-2,1.4206881E-3,3.356639E-2,-1.4655726E-3],"split_indices":[9,10,1,10,0,5,7,7,5,7,7,0,7,0,0,0,0,0,0,0,7,0,7,0,0,0,0],"split_type":[0,0,0,0,0,0,0,0,0,0,0,0,0,0,0,0,0,0,0,0,0,0,0,0,0,0,0],"sum_hessian":[7.1907005E1,6.910463E0,6.4996544E1,4.379598E0,2.5308647E0,2.577017E1,3.9226376E1,2.3278403E0,2.0517578E0,2.932874E0,2.2837297E1,1.342094E0,3.788428E1,1.0354043E0,1.2924359E0,1.0130354E0,1.0387224E0,1.781388E0,1.1514859E0,1.1264842E0,2.1710814E1,1.7945771E0,3.6089703E1,3.217647E0,1.8493166E1,1.052943E1,2.5560272E1],"tree_param":{"num_deleted":"0","num_feature":"11","num_nodes":"27","size_leaf_vector":"1"}},{"base_weights":[-3.0170394E-2,-2.1064511E-1,4.8917145E-2,-1.0803426E-1,-6.289295E-2,2.4879482E-1,-1.6314861E-1,-1.9474764E-1,4.9561553E-2,4.1465494E-1,1.4255394E-2,-2.5171518E-1,5.6247782E-2,1.9351954E-2,-4.7832495E-1,8.242375E-2,6.0267466E-1,-6.061546E-1,2.3400103E-1,-4.6493608E-1,-6.256377E-4,-2.1144582E-2,3.730238E-2,-8.280499E-2,-7.3130536E-3,2.6196487E-2,-4.50323E-2,6.179207E-2,1.879821E-2,-7.476115E-2,-5.7507376E-4,6.2187742E-2,-5.567813E-3,2.6241861E-2,-4.828161E-2,6.1237685E-2,-4.2030025E-2],"categories":[],"categories_nodes":[],"categories_segments":[],"categories_sizes":[],"default_left":[0,0,0,0,0,0,0,0,0,0,0,0,0,0,0,0,0,0,0,0,0,0,0,0,0,0,0,0,0,0,0,0,0,0,0,0,0],"id":40,"left_children":[1,3,5,7,-1,9,11,13,-1,15,17,19,-1,21,23,25,27,29,31,33,35,-1,-1,-1,-1,-1,-1,-1,-1,-1,-1,-1,-1,-1,-1,-1,-1],"loss_changes":[1.046345E0,1.2322783E0,2.2142422E0,1.388057E0,0E0,1.0364372E0,2.1322587E0,1.1452587E0,0E0,9.2854166E-1,1.7962488E0,1.2770141E0,0E0,1.5966928E0,1.6476519E0,1.2624265E0,4.3272066E-1,6.7230785E-1,1.651335E0,1.6156392E0,5.209176E0,0E0,0E0,0E0,0E0,0E0,0E0,0E0,0E0,0E0,0E0,0E0,0E0,0E0,0E0,0E0,0E0],"parents":[2147483647,0,0,1,1,2,2,3,3,5,5,6,6,7,7,9,9,10,10,11,11,13,13,14,14,15,15,16,16,17,17,18,18,19,19,20,20],"right_children":[2,4,6,8,-1,10,12,14,-1,16,18,20,-1,22,24,26,28,30,32,34,36,-1,-1,-1,-1,-1,-1,-1,-1,-1,-1,-1,-1,-1,-1,-1,-1],"split_conditions":[1E0,9.56E3,2E0,7.451E3,-6.289295E-2,1.51E2,1.125E4,4.554E3,4.9561553E-2,1E2,4.006E3,1.89E2,5.6247782E-2,3.601E3,5.167E3,1E0,4.2E3,2.934E3,5.726E3,3.6E2,1.842E3,-2.1144582E-2,3.730238E-2,-8.280499E-2,-7.3130536E-3,2.6196487E-2,-4.50323E-2,6.179207E-2,1.879821E-2,-7.476115E-2,-5.7507376E-4,6.2187742E-2,-5.567813E-3,2.6241861E-2,-4.828161E-2,6.1237685E-2,-4.2030025E-2],"split_indices":[10,5,10,5,0,7,5,5,0,7,5,6,0,5,5,4,5,6,5,8,6,0,0,0,0,0,0,0,0,0,0,0,0,0,0,0,0],"split_type":[0,0,0,0,0,0,0,0,0,0,0,0,0,0,0,0,0,0,0,0,0,0,0,0,0,0,0,0,0,0,0,0,0,0,0,0,0],"sum_hessian":[7.158593E1,2.130509E1,5.0280838E1,1.9089308E1,2.2157812E0,2.5795082E1,2.4485756E1,1.7710777E1,1.3785311E0,1.4659977E1,1.1135106E1,2.2858118E1,1.6276379E0,1.0622555E1,7.088223E0,5.8179774E0,8.841999E0,2.4525E0,8.682606E0,1.1900633E1,1.0957485E1,6.7481833E0,3.874371E0,2.219433E0,4.8687897E0,4.57385E0,1.2441275E0,5.29652E0,3.545479E0,1.2222416E0,1.2302585E0,2.553036E0,6.1295695E0,1.5670756E0,1.0333557E1,4.267909E0,6.689576E0],"tree_param":{"num_deleted":"0","num_feature":"11","num_nodes":"37","size_leaf_vector":"1"}},{"base_weights":[-2.7390603E-2,-3.7273905E-1,1.3892718E-2,7.0961127E-3,-4.8258987E-1,-7.00567E-2,1.5633905E-1,-5.9015397E-2,-1.9084631E-1,2.7473267E-2,-5.094184E-1,-1.11256965E-1,4.861732E-1,2.4315752E-2,-5.6215957E-2,1.4732449E-1,-3.267216E-1,-7.622015E-1,3.1981427E-2,9.678865E-2,-6.6876584E-1,6.91392E-1,-1.3537708E-1,1.7725457E-2,-5.1001985E-2,9.013091E-3,-6.5807335E-2,-7.399678E-2,-5.7012634E-3,3.8740337E-2,-2.2099115E-2,-8.375032E-2,-1.0295487E-2,7.3370687E-3,6.4309664E-2,-5.693627E-2,2.9966254E-2],"categories":[],"categories_nodes":[],"categories_segments":[],"categories_sizes":[],"default_left":[0,0,0,0,0,0,0,0,0,0,0,0,0,0,0,0,0,0,0,0,0,0,0,0,0,0,0,0,0,0,0,0,0,0,0,0,0],"id":41,"left_children":[1,3,5,-1,7,9,11,-1,13,15,17,19,21,-1,-1,23,25,27,-1,29,31,33,35,-1,-1,-1,-1,-1,-1,-1,-1,-1,-1,-1,-1,-1,-1],"loss_changes":[1.0360171E0,4.3596828E-1,7.9478383E-1,0E0,3.370279E-1,1.810832E0,2.2266545E0,0E0,1.3137419E0,1.5451075E0,2.0671194E0,1.7353342E0,1.5236692E0,0E0,0E0,1.7167296E0,2.1029046E0,6.47527E-1,0E0,1.7760807E0,6.904093E-1,5.058389E-1,1.3302603E0,0E0,0E0,0E0,0E0,0E0,0E0,0E0,0E0,0E0,0E0,0E0,0E0,0E0,0E0],"parents":[2147483647,0,0,1,1,2,2,4,4,5,5,6,6,8,8,9,9,10,10,11,11,12,12,15,15,16,16,17,17,19,19,20,20,21,21,22,22],"right_children":[2,4,6,-1,8,10,12,-1,14,16,18,20,22,-1,-1,24,26,28,-1,30,32,34,36,-1,-1,-1,-1,-1,-1,-1,-1,-1,-1,-1,-1,-1,-1],"split_conditions":[1E0,2.4E2,5.05E3,7.0961127E-3,1.37E2,4.554E3,1E0,-5.9015397E-2,1.67E2,2.541E3,2.1E3,2.067E3,1E4,2.4315752E-2,-5.6215957E-2,1E0,1E0,1.48E2,3.1981427E-2,7.333E3,1E0,1E0,1.4583E4,1.7725457E-2,-5.1001985E-2,9.013091E-3,-6.5807335E-2,-7.399678E-2,-5.7012634E-3,3.8740337E-2,-2.2099115E-2,-8.375032E-2,-1.0295487E-2,7.3370687E-3,6.4309664E-2,-5.693627E-2,2.9966254E-2],"split_indices":[9,8,5,0,7,5,2,0,7,6,6,6,5,0,0,4,2,7,0,5,10,3,5,0,0,0,0,0,0,0,0,0,0,0,0,0,0],"split_type":[0,0,0,0,0,0,0,0,0,0,0,0,0,0,0,0,0,0,0,0,0,0,0,0,0,0,0,0,0,0,0,0,0,0,0,0,0],"sum_hessian":[7.130338E1,6.7562604E0,6.454713E1,1.3361489E0,5.4201117E0,4.0932266E1,2.361486E1,2.076148E0,3.3439634E0,3.426382E1,6.6684475E0,1.3403348E1,1.0211512E1,1.9068509E0,1.4371126E0,2.6037424E1,8.226395E0,5.344242E0,1.3242053E0,1.0362693E1,3.0406556E0,7.5923576E0,2.619154E0,2.4442913E1,1.594512E0,4.7713485E0,3.455046E0,4.0512214E0,1.2930207E0,4.9367223E0,5.42597E0,1.2365335E0,1.8041222E0,1.4858679E0,6.1064897E0,1.0438391E0,1.5753149E0],"tree_param":{"num_deleted":"0","num_feature":"11","num_nodes":"37","size_leaf_vector":"1"}},{"base_weights":[-2.8721433E-2,-5.3572617E-2,4.0844988E-2,-4.516996E-1,-6.212929E-3,7.2712707E-3,-5.9101635E-1,2.2677302E-2,-5.30778E-2,-6.2848516E-2,-2.1844134E-1,4.565404E-2,-4.880558E-2,2.1507582E-2,-5.089248E-2,1.3096397E-3,4.822963E-2],"categories":[],"categories_nodes":[],"categories_segments":[],"categories_sizes":[],"default_left":[0,0,0,0,0,0,0,0,0,0,0,0,0,0,0,0,0],"id":42,"left_children":[1,3,-1,5,7,-1,9,11,-1,-1,13,15,-1,-1,-1,-1,-1],"loss_changes":[9.896209E-1,1.3084444E0,0E0,6.115259E-1,1.2144295E0,0E0,2.6374173E-1,9.2155373E-1,0E0,0E0,8.7232196E-1,9.732125E-1,0E0,0E0,0E0,0E0,0E0],"parents":[2147483647,0,0,1,1,3,3,4,4,6,6,7,7,10,10,11,11],"right_children":[2,4,-1,6,8,-1,10,12,-1,-1,14,16,-1,-1,-1,-1,-1],"split_conditions":[3.8E2,1E0,4.0844988E-2,2.491E3,4.8E2,7.2712707E-3,1.53E2,7.25E3,-5.30778E-2,-6.2848516E-2,5.316E3,5.5E3,-4.880558E-2,2.1507582E-2,-5.089248E-2,1.3096397E-3,4.822963E-2],"split_indices":[7,9,0,5,8,0,7,6,0,0,5,6,0,0,0,0,0],"split_type":[0,0,0,0,0,0,0,0,0,0,0,0,0,0,0,0,0],"sum_hessian":[7.080124E1,6.85433E1,2.2579408E0,6.379201E0,6.2164093E1,1.3743148E0,5.004886E0,6.047153E1,1.6925646E0,2.5595088E0,2.4453773E0,5.9247925E1,1.2236028E0,1.2931921E0,1.1521853E0,5.72677E1,1.980226E0],"tree_param":{"num_deleted":"0","num_feature":"11","num_nodes":"17","size_leaf_vector":"1"}},{"base_weights":[-2.7909845E-2,-2.3759013E-1,3.581153E-2,4.6843502E-1,-3.8945112E-1,1.3351654E-1,-1.8097562E-1,-9.473947E-3,6.253678E-2,-2.036108E-2,-6.625098E-1,7.73765E-1,6.388566E-2,-5.5374277E-1,1.0257117E-1,-6.88047E-2,5.1076394E-1,-9.141025E-1,-4.7989555E-2,2.0449987E-2,7.23289E-2,-1.7847076E-1,2.2894493E-1,6.0572255E-2,-1.0166397E0,3.2291368E-1,-3.1269062E-1,5.5624712E-2,-2.0621875E-3,-1.0903283E-1,-1.31064495E-2,3.896764E-2,-4.9319625E-2,3.348984E-3,-5.5887856E-2,3.598795E-2,-1.7108858E-2,4.1196585E-2,-5.70493E-2,-1.8207882E-2,-9.501912E-2,4.9499586E-2,-3.0371632E-2,-5.6662682E-2,1.2337796E-2],"categories":[],"categories_nodes":[],"categories_segments":[],"categories_sizes":[],"default_left":[0,0,0,0,0,0,0,0,0,0,0,0,0,0,0,0,0,0,0,0,0,0,0,0,0,0,0,0,0,0,0,0,0,0,0,0,0,0,0,0,0,0,0,0,0],"id":43,"left_children":[1,3,5,7,9,11,13,-1,-1,15,17,19,21,23,25,-1,27,29,31,-1,-1,33,35,37,39,41,43,-1,-1,-1,-1,-1,-1,-1,-1,-1,-1,-1,-1,-1,-1,-1,-1,-1,-1],"loss_changes":[9.6445894E-1,1.9843752E0,1.2048196E0,7.22988E-1,1.4355121E0,1.6891825E0,1.9320569E0,0E0,0E0,3.6260068E0,1.2288785E0,2.1162987E-2,1.4915192E0,2.285674E0,1.1002022E0,0E0,5.1342857E-1,1.724803E0,1.348772E0,0E0,0E0,1.7773362E0,2.249166E0,1.8805566E0,3.3942938E-1,1.8200355E0,9.0233636E-1,0E0,0E0,0E0,0E0,0E0,0E0,0E0,0E0,0E0,0E0,0E0,0E0,0E0,0E0,0E0,0E0,0E0,0E0],"parents":[2147483647,0,0,1,1,2,2,3,3,4,4,5,5,6,6,9,9,10,10,11,11,12,12,13,13,14,14,16,16,17,17,18,18,21,21,22,22,23,23,24,24,25,25,26,26],"right_children":[2,4,6,8,10,12,14,-1,-1,16,18,20,22,24,26,-1,28,30,32,-1,-1,34,36,38,40,42,44,-1,-1,-1,-1,-1,-1,-1,-1,-1,-1,-1,-1,-1,-1,-1,-1,-1,-1],"split_conditions":[1E0,1E0,2.083E3,1.03E2,1.27E2,2.4E2,3.053E3,-9.473947E-3,6.253678E-2,9.4E1,1.993E3,4.16E3,1.14E2,1.45E2,2.39E2,-6.88047E-2,1.16E2,4.945E3,3.274E3,2.0449987E-2,7.23289E-2,4.167E3,7.933E3,2.792E3,3.717E3,2E0,5.818E3,5.5624712E-2,-2.0621875E-3,-1.0903283E-1,-1.31064495E-2,3.896764E-2,-4.9319625E-2,3.348984E-3,-5.5887856E-2,3.598795E-2,-1.7108858E-2,4.1196585E-2,-5.70493E-2,-1.8207882E-2,-9.501912E-2,4.9499586E-2,-3.0371632E-2,-5.6662682E-2,1.2337796E-2],"split_indices":[3,0,6,7,7,8,6,0,0,7,6,5,7,7,7,0,7,5,6,0,0,5,5,6,5,10,5,0,0,0,0,0,0,0,0,0,0,0,0,0,0,0,0,0,0],"split_type":[0,0,0,0,0,0,0,0,0,0,0,0,0,0,0,0,0,0,0,0,0,0,0,0,0,0,0,0,0,0,0,0,0,0,0,0,0,0,0,0,0,0,0,0,0],"sum_hessian":[7.0547195E1,1.5806397E1,5.47408E1,2.4289947E0,1.3377402E1,3.799895E1,1.6741848E1,1.0618341E0,1.3671606E0,6.145361E0,7.232042E0,2.7353468E0,3.5263603E1,6.82128E0,9.9205675E0,2.1410654E0,4.0042953E0,4.7853503E0,2.4466918E0,1.1449944E0,1.5903524E0,1.425368E1,2.1009922E1,3.3047109E0,3.516569E0,6.6267343E0,3.2938333E0,2.7593122E0,1.2449833E0,2.4833004E0,2.3020496E0,1.3341618E0,1.11253E0,1.0658226E1,3.5954545E0,1.4006519E1,7.0034027E0,2.2926543E0,1.0120566E0,1.0419106E0,2.4746583E0,4.7471285E0,1.879606E0,1.5032516E0,1.7905818E0],"tree_param":{"num_deleted":"0","num_feature":"11","num_nodes":"45","size_leaf_vector":"1"}},{"base_weights":[-2.8185612E-2,-2.0034875E-1,4.700371E-2,-1.04813084E-1,-5.7928413E-2,2.3187697E-1,-1.4690213E-1,-1.8533659E-1,4.6955984E-2,3.9143792E-1,1.0097128E-2,-2.3158127E-1,5.49835E-2,-4.9976435E-2,-5.821688E-1,-1.216001E-2,4.8056892E-1,-4.89645E-1,2.3759331E-1,-4.3260092E-1,8.832016E-3,-2.4507243E-2,3.9011743E-2,-7.821275E-2,2.098484E-2,5.8626927E-2,1.0619586E-2,-6.997624E-2,1.0651807E-2,7.363226E-2,-5.4525496E-3,1.9702943E-2,-4.7689546E-2,5.8222402E-2,-3.741168E-2],"categories":[],"categories_nodes":[],"categories_segments":[],"categories_sizes":[],"default_left":[0,0,0,0,0,0,0,0,0,0,0,0,0,0,0,0,0,0,0,0,0,0,0,0,0,0,0,0,0,0,0,0,0,0,0],"id":44,"left_children":[1,3,5,7,-1,9,11,13,-1,15,17,19,-1,21,23,-1,25,27,29,31,33,-1,-1,-1,-1,-1,-1,-1,-1,-1,-1,-1,-1,-1,-1],"loss_changes":[9.307818E-1,1.016218E0,1.8390223E0,1.2021356E0,0E0,9.2190015E-1,1.9383487E0,9.561315E-1,0E0,8.0878687E-1,1.477627E0,1.1450262E0,0E0,2.185158E0,1.7831526E0,0E0,1.0688133E0,1.0930634E0,1.9210709E0,1.5766988E0,4.3597255E0,0E0,0E0,0E0,0E0,0E0,0E0,0E0,0E0,0E0,0E0,0E0,0E0,0E0,0E0],"parents":[2147483647,0,0,1,1,2,2,3,3,5,5,6,6,7,7,9,9,10,10,11,11,13,13,14,14,16,16,17,17,18,18,19,19,20,20],"right_children":[2,4,6,8,-1,10,12,14,-1,16,18,20,-1,22,24,-1,26,28,30,32,34,-1,-1,-1,-1,-1,-1,-1,-1,-1,-1,-1,-1,-1,-1],"split_conditions":[1E0,9.56E3,2E0,7.451E3,-5.7928413E-2,1.51E2,1.125E4,1.65E2,4.6955984E-2,3.6E2,4.692E3,1.89E2,5.49835E-2,1.34E2,1.96E2,-1.216001E-2,3.867E3,2.934E3,5.726E3,1E0,1.842E3,-2.4507243E-2,3.9011743E-2,-7.821275E-2,2.098484E-2,5.8626927E-2,1.0619586E-2,-6.997624E-2,1.0651807E-2,7.363226E-2,-5.4525496E-3,1.9702943E-2,-4.7689546E-2,5.8222402E-2,-3.741168E-2],"split_indices":[10,5,10,5,0,7,5,7,0,8,5,6,0,7,7,0,5,6,5,0,6,0,0,0,0,0,0,0,0,0,0,0,0,0,0],"split_type":[0,0,0,0,0,0,0,0,0,0,0,0,0,0,0,0,0,0,0,0,0,0,0,0,0,0,0,0,0,0,0,0,0,0,0],"sum_hessian":[7.017628E1,2.082594E1,4.9350338E1,1.8628187E1,2.197752E0,2.516334E1,2.4186996E1,1.7341642E1,1.2865442E0,1.4189574E1,1.0973765E1,2.2613855E1,1.5731405E0,1.3770454E1,3.5711875E0,1.8999696E0,1.2289605E1,3.072364E0,7.901401E0,1.188059E1,1.0733266E1,9.615518E0,4.1549373E0,2.324745E0,1.2464427E0,6.4816885E0,5.807916E0,1.6485928E0,1.4237713E0,1.8220456E0,6.0793557E0,2.2078743E0,9.672716E0,4.067891E0,6.6653743E0],"tree_param":{"num_deleted":"0","num_feature":"11","num_nodes":"35","size_leaf_vector":"1"}},{"base_weights":[-2.4847982E-2,-3.6003605E-1,1.4342087E-2,8.571769E-3,-4.753499E-1,3.647123E-2,-3.7453245E-2,-3.4852563E-3,-5.997745E-1,-3.1239793E-1,7.227577E-2,-5.8829535E-2,-1.8354122E-2,1.8437488E-1,-8.137906E-1,3.5624075E-1,-1.3712808E-2,-2.6228327E-2,3.902643E-2,-1.4566682E-2,-8.460157E-2,-3.698671E-2,4.078018E-2,-1.6053326E-2,1.2248916E-2],"categories":[],"categories_nodes":[],"categories_segments":[],"categories_sizes":[],"default_left":[0,0,0,0,0,0,0,0,0,0,0,0,0,0,0,0,0,0,0,0,0,0,0,0,0],"id":45,"left_children":[1,3,5,-1,7,9,-1,-1,11,13,15,-1,-1,17,19,21,23,-1,-1,-1,-1,-1,-1,-1,-1],"loss_changes":[9.3659925E-1,4.528697E-1,7.0519537E-1,0E0,3.052342E-1,8.0386806E-1,0E0,0E0,6.77973E-2,1.6469233E0,1.4098326E0,0E0,0E0,7.5589454E-1,2.963829E-1,1.920868E0,1.4381741E0,0E0,0E0,0E0,0E0,0E0,0E0,0E0,0E0],"parents":[2147483647,0,0,1,1,2,2,4,4,5,5,8,8,9,9,10,10,13,13,14,14,15,15,16,16],"right_children":[2,4,6,-1,8,10,-1,-1,12,14,16,-1,-1,18,20,22,24,-1,-1,-1,-1,-1,-1,-1,-1],"split_conditions":[1E0,2.4E2,4.8E2,8.571769E-3,1E0,2.132E3,-3.7453245E-2,-3.4852563E-3,1.53E2,2.791E3,3.358E3,-5.8829535E-2,-1.8354122E-2,1.125E3,1.8E3,3.42E2,4.945E3,-2.6228327E-2,3.902643E-2,-1.4566682E-2,-8.460157E-2,-3.698671E-2,4.078018E-2,-1.6053326E-2,1.2248916E-2],"split_indices":[9,8,8,0,1,5,0,0,7,6,5,0,0,6,5,8,5,0,0,0,0,0,0,0,0],"split_type":[0,0,0,0,0,0,0,0,0,0,0,0,0,0,0,0,0,0,0,0,0,0,0,0,0],"sum_hessian":[6.990686E1,6.460871E0,6.344599E1,1.2930447E0,5.167826E0,6.1547657E1,1.8983331E0,1.4580766E0,3.7097497E0,5.009681E0,5.6537975E1,1.9940541E0,1.7156956E0,2.8340344E0,2.175647E0,1.2410662E1,4.4127316E1,1.0244216E0,1.8096129E0,1.0921196E0,1.0835273E0,1.6421974E0,1.0768465E1,2.0712605E1,2.3414711E1],"tree_param":{"num_deleted":"0","num_feature":"11","num_nodes":"25","size_leaf_vector":"1"}},{"base_weights":[-2.565142E-2,-5.010197E-2,4.6285504E-1,-4.2551512E-1,-6.960861E-3,-1.6317705E-2,6.8719216E-2,8.044268E-3,-5.6792617E-1,2.0237641E-2,-4.9503107E-2,-6.1249427E-2,-1.8852824E-1,5.448757E-2,-4.085995E-1,7.057988E-3,-2.8582787E-2,-1.32970065E-2,9.991399E-3,-4.9658403E-2,5.7164025E-3],"categories":[],"categories_nodes":[],"categories_segments":[],"categories_sizes":[],"default_left":[0,0,0,0,0,0,0,0,0,0,0,0,0,0,0,0,0,0,0,0,0],"id":46,"left_children":[1,3,5,7,9,-1,-1,-1,11,13,-1,-1,15,17,19,-1,-1,-1,-1,-1,-1],"loss_changes":[8.6593103E-1,1.0998935E0,1.0893908E0,5.8168876E-1,1.0458059E0,0E0,0E0,0E0,2.8024054E-1,9.0967363E-1,0E0,0E0,1.8405116E-1,9.0384483E-1,5.1139057E-1,0E0,0E0,0E0,0E0,0E0,0E0],"parents":[2147483647,0,0,1,1,2,2,3,3,4,4,8,8,9,9,12,12,13,13,14,14],"right_children":[2,4,6,8,10,-1,-1,-1,12,14,-1,-1,16,18,20,-1,-1,-1,-1,-1,-1],"split_conditions":[3.7E2,1E0,1E0,2.491E3,4.8E2,-1.6317705E-2,6.8719216E-2,8.044268E-3,1.53E2,2.6E2,-4.9503107E-2,-6.1249427E-2,1.66E2,1E0,2E0,7.057988E-3,-2.8582787E-2,-1.32970065E-2,9.991399E-3,-4.9658403E-2,5.7164025E-3],"split_indices":[7,9,10,5,8,0,0,0,7,7,0,0,7,3,10,0,0,0,0,0,0],"split_type":[0,0,0,0,0,0,0,0,0,0,0,0,0,0,0,0,0,0,0,0,0],"sum_hessian":[6.9556206E1,6.709541E1,2.4607968E0,6.002081E0,6.109333E1,1.0978498E0,1.3629471E0,1.3412834E0,4.660797E0,5.941882E1,1.6745108E0,2.394909E0,2.2658885E0,5.583258E1,3.586239E0,1.0390692E0,1.2268193E0,1.3174214E1,4.2658367E1,2.283948E0,1.3022912E0],"tree_param":{"num_deleted":"0","num_feature":"11","num_nodes":"21","size_leaf_vector":"1"}},{"base_weights":[-2.5391947E-2,-1.8558455E-1,4.48366E-2,-9.368982E-2,-6.8565047E-1,2.2191408E-1,-1.3967486E-1,-1.7026488E-1,4.5379832E-2,-7.83907E-2,-1.6438123E-3,3.76651E-1,1.0241183E-2,-2.1823974E-1,5.2455205E-2,2.8496623E-2,-4.3213677E-1,7.153101E-2,5.564874E-1,-4.5255238E-1,2.2482003E-1,-4.053312E-1,9.271735E-3,-1.975064E-2,3.6673583E-2,-7.0525005E-2,-8.037915E-3,2.4330711E-2,-4.084689E-2,5.7604596E-2,1.7548092E-2,-6.631902E-2,1.1916248E-2,7.1804024E-2,-5.661954E-3,2.798887E-2,-4.310108E-2,5.6185946E-2,-3.4840193E-2],"categories":[],"categories_nodes":[],"categories_segments":[],"categories_sizes":[],"default_left":[0,0,0,0,0,0,0,0,0,0,0,0,0,0,0,0,0,0,0,0,0,0,0,0,0,0,0,0,0,0,0,0,0,0,0,0,0,0,0],"id":47,"left_children":[1,3,5,7,9,11,13,15,-1,-1,-1,17,19,21,-1,23,25,27,29,31,33,35,37,-1,-1,-1,-1,-1,-1,-1,-1,-1,-1,-1,-1,-1,-1,-1,-1],"loss_changes":[7.989606E-1,9.290127E-1,1.6536651E0,1.0793139E0,6.055213E-1,8.388572E-1,1.7012476E0,9.580788E-1,0E0,0E0,0E0,7.7424216E-1,1.2828264E0,1.0016592E0,0E0,1.4472196E0,1.0893214E0,1.055568E0,3.4865022E-1,1.0517235E0,1.8122379E0,1.4870877E0,3.8682735E0,0E0,0E0,0E0,0E0,0E0,0E0,0E0,0E0,0E0,0E0,0E0,0E0,0E0,0E0,0E0,0E0],"parents":[2147483647,0,0,1,1,2,2,3,3,4,4,5,5,6,6,7,7,11,11,12,12,13,13,15,15,16,16,17,17,18,18,19,19,20,20,21,21,22,22],"right_children":[2,4,6,8,10,12,14,16,-1,-1,-1,18,20,22,-1,24,26,28,30,32,34,36,38,-1,-1,-1,-1,-1,-1,-1,-1,-1,-1,-1,-1,-1,-1,-1,-1],"split_conditions":[1E0,9.56E3,2E0,7.451E3,1E0,1.51E2,1.125E4,4.554E3,4.5379832E-2,-7.83907E-2,-1.6438123E-3,1E2,4.692E3,1.89E2,5.2455205E-2,3.601E3,5.167E3,1E0,4.2E3,2.934E3,5.726E3,3.6E2,1.842E3,-1.975064E-2,3.6673583E-2,-7.0525005E-2,-8.037915E-3,2.4330711E-2,-4.084689E-2,5.7604596E-2,1.7548092E-2,-6.631902E-2,1.1916248E-2,7.1804024E-2,-5.661954E-3,2.798887E-2,-4.310108E-2,5.6185946E-2,-3.4840193E-2],"split_indices":[10,5,10,5,2,7,5,5,0,0,0,7,5,6,0,5,5,4,5,6,5,8,6,0,0,0,0,0,0,0,0,0,0,0,0,0,0,